user_0:0.11239815019071102 0.19768263939768077 -0.0865831513889134 -0.06314626773819328 0.08754100215155632 -0.21688145101070405 0.20568625497398899 0.37764175087213514 -0.1136376803740859 -0.11324701849371195 -0.032275392091833055 -0.2672416128218174 -0.05106912249466404 -0.03131092327530496 -0.0029168656445108356 -0.05499762003310025 0.07230133661068976 -0.12741287592798473 -0.011983667849563062 -0.4109341986477375 0.0627061911392957 0.14416505778208374 0.15168358851224184 -0.07742825644090771 -0.08263283489795867 0.06767692342400551 -0.12928613759577273 -0.1145371962338686 -0.1775402057915926 0.09342134837061167 0.16827034167945384 -0.23285266901366414 0.1526581658050418 -0.18965220935642718 -0.18297559395432472 0.2856289178133011 -0.082192653225502 -0.08098873461131006 -0.046093974635004996 -0.1930467840284109 0.1576606722548604 -0.1257656216621399 -0.10768379652872681 0.08935602139681578 0.28117666989564893 0.022153698542388155 -0.029873197968117892 -0.16721726986579596 0.08966854959726334 0.12891471516340972 0.08074737004935742 -0.09328164784237743 0.0007364796590991318 -0.02955051527824253 -0.02377918642014265 0.1826785493642092 0.10970607586205006 -0.01503241506870836 -0.07789540574885905 0.03516685981303454 0.07959251860156655 -0.0276108552061487 0.10629588179290295 0.030772323813289405 -0.10804917877539992 0.3126343750220258 0.11003176011145115 0.1623815380036831 -0.28278601467609404 0.15664346553385258 -0.1684393122792244 0.07159337676130235 0.18111277036368847 0.0808254555799067 0.10523578152060509 0.07405206384137272 -0.01725348097970709 0.07020011432468891 -0.08811484202742577 -0.01007817878271453 -0.17070851465687156 0.10980766476131976 -0.2459467239677906 0.2770894058048725 -0.1526449251919985 -0.046448680385947225 0.25328087657690046 0.16522266268730162 0.1568013098090887 0.03110521793132648 0.19653985425829887 0.0873008999042213 0.08625693125650287 0.05360490665771067 0.28706840947270396 0.13458663374185562 0.10526139904977753 -0.015182934887707233 -0.01678748673730297 -0.10658398233354091
user_1:0.09036486731334166 0.1779004606333646 -0.06023846482011405 -0.05610356793146242 0.06843367557634007 -0.21409467032009905 0.18553388152610173 0.37044250423258 -0.09679642438211224 -0.10559868321500042 -0.05465520613572814 -0.2719236978075721 -0.03839292394166643 -0.03137744632972912 -0.019147641956806183 -0.06551038406111977 0.04676897535947236 -0.15346775119277564 0.02220886992290616 -0.37826520610939374 0.055494440444321794 0.12794614398047666 0.12679481912742963 -0.08549108491702513 -0.06652002660980956 0.06780527091839096 -0.1177385642447255 -0.13677373122085223 -0.18334937366572293 0.06717249742624434 0.15072397515177727 -0.18493235619230705 0.12723405527966944 -0.15578821690922434 -0.18475438383492557 0.26572303067554126 -0.07062439476563172 -0.10018498920412226 -0.045471367172219536 -0.20107120343229987 0.1553053597665646 -0.12461606548591093 -0.1080013361166824 0.042982487177306954 0.2724870023402301 0.0023856785317713566 -0.020546450618315826 -0.14760172477161343 0.08361127532341263 0.11436534910039468 0.08344591138037769 -0.0991865335540338 0.03114029513248666 -0.025582840115847914 -0.034894689578901635 0.17981273409995166 0.10508191958069801 0.0038472375652583487 -0.0953960425474427 0.03686915781475942 0.05610815266316587 -0.016328298751349477 0.09463810698467899 0.011195314878767187 -0.1323707593096928 0.25502703948454425 0.11929171701723879 0.1590045006437735 -0.2672276903282512 0.15483366494829004 -0.15861220454627817 0.06421226059848612 0.18098287284374237 0.06491319530389526 0.10229365730827505 0.06871763261204417 -0.009557565335522999 0.038461110469969834 -0.09837381169199944 0.03128298033367504 -0.14852612804282794 0.09114475836130706 -0.24812668291005222 0.26600871031934564 -0.16006435047496448 -0.052159212275662205 0.21215565070848574 0.18455497852780603 0.15924479947848755 0.011888599700548431 0.19103541699322787 0.108095006424595 0.07196075689386237 0.06649646802212704 0.3069093308665536 0.14643824100494385 0.09188314307142388 -0.028133443810723045 0.00015059077519584787 -0.09664089588279073
user_2:0.11508987005800009 0.19895385646007277 -0.10091713536530733 -0.04666598997499188 0.08117706993256103 -0.22062035074288194 0.23176456110509622 0.3875865468924696 -0.11214272644032132 -0.11758805980736559 -0.03068644506856799 -0.27029464732516895 -0.03789392504735257 -0.037209585798502136 -0.020104091095907443 -0.053826655642214144 0.090921494030309 -0.13430282528596846 -0.019581321140073916 -0.42460139908573846 0.06670149582946165 0.13731705163610802 0.17530111748386512 -0.07341430403969505 -0.11144239021814428 0.05927804929987443 -0.12502004324712537 -0.10802269659259102 -0.18401482294906268 0.10576263992962512 0.18607517399571158 -0.2526019008999521 0.15898715154352513 -0.18500521863726052 -0.1907250847328793 0.27720190381461923 -0.08635991147126663 -0.09263537127778611 -0.04651526785032316 -0.18215738948095928 0.15002406788566572 -0.1342942477627234 -0.10577580873558129 0.10059026247737082 0.27787741409106687 0.03351899269513193 -0.03153467874587725 -0.1791197820989923 0.08890194598246705 0.13262866403568874 0.09662395885044878 -0.09709354966550811 -0.006758029689081013 -0.028085888257588853 -0.03174888881304386 0.1977974780919877 0.11812521377578378 -0.03448320980533026 -0.09734407968988473 0.0358002228630622 0.08284003526734357 -0.029435041958508504 0.10657883261923086 0.02732028094628318 -0.11941569349305196 0.32531035399403085 0.10289068350737746 0.1622532115063884 -0.28808959979902615 0.1634266274896535 -0.1695036759430712 0.0642976320576219 0.1913978470997377 0.06863043639300899 0.10726184939796274 0.08483805270357565 -0.023307504534552045 0.07471945729974488 -0.08936332047662952 -0.020983239297162403 -0.1852379045025869 0.12253892282024026 -0.24589224498380313 0.27547019872475753 -0.15791082653132352 -0.04578743676062335 0.24169132541018454 0.1617559316483411 0.16173863851211287 0.019133651375093243 0.2189217765222896 0.0717957610190338 0.09849847718611603 0.05069163390858607 0.2760877372189002 0.12706361744891514 0.11933230932283384 -0.005267716433577748 -0.015110291862087748 -0.10641117935830896
user_3:0.04824668997025583 0.1334992202464491 0.05172197235515341 -0.06907438993221149 0.08499499710160308 -0.26694376301020384 0.061004406969004776 0.38020411506295204 -0.06059215246932581 -0.0868845991208218 -0.024446630995953456 -0.29962359368801117 -0.07088154967823357 0.0030654437432531267 0.021750243613496423 -0.11449127830564976 -0.10021752415923402 -0.14950031752232462 0.08950760259176604 -0.2459190795198083 0.07337071100482717 0.15015072567621246 -0.004963069935911335 -0.16123847410199232 -0.008512222382705659 0.06955555733293295 -0.08506061043590307 -0.16474640229716897 -0.20466036908328533 -0.0004077682751812972 0.12745175711461343 -0.07935967156663537 0.07791838883713353 -0.10102639038814232 -0.15121818659827113 0.2782597290351987 -0.03688050850178115 -0.06574551394442096 -0.037432964192703366 -0.23748670797795057 0.22129463450983167 -0.13529017940163612 -0.1531752496957779 0.0005804821848869324 0.290385858155787 -0.06686770630039973 0.01282027260367613 -0.06530075952468906 0.08182886871509254 0.0865906688850373 0.10986579162999988 -0.0713851103791967 0.11963339864450973 0.024751569842919707 1.1678901500999928e-05 0.21933095576241612 0.12414092698600143 0.051944767885288456 0.012928394135087729 0.014430093702685554 0.009060424592462368 0.08600299990212079 0.04625204431795282 -0.023915173835121095 -0.1051967513631098 0.18688912299694493 0.16564686270430684 0.18208949267864227 -0.2652623737230897 0.11692340997979045 -0.15020579239353538 0.04068555268167984 0.1782097928225994 0.08522097812965512 0.11762052681297064 0.06632148125208914 0.02428394666640088 -0.038641667197225615 -0.1369077805429697 0.1251901143696159 -0.08359362547344062 0.05130798129539471 -0.2627926981076598 0.327829304151237 -0.16919273184612393 -0.03166753868572414 0.20948800933547318 0.2349069705232978 0.13654273096472025 0.09131746122147888 0.1504469159990549 0.17787891440093517 0.03444033475534525 0.11305487272329628 0.36470845714211464 0.17791163688525558 0.04054310137871653 -0.03948670224053785 0.026177309337072074 -0.11869575595483184
user_4:0.06803634944623588 0.15565185842884555 0.03325366257765406 -0.0676367756079983 0.09436344849952572 -0.27517110572473424 0.08529742011592749 0.39371705860704986 -0.07188708086598765 -0.10000862025127218 0.003119701730414621 -0.30207626118853287 -0.07287960388773196 0.003952537891392068 0.031806604080909004 -0.1110379021816157 -0.07633626354052811 -0.12865396025055717 0.07042747701996484 -0.2746634622280662 0.08082437049597502 0.16666131834121975 0.01935015123564045 -0.16751640853849617 -0.03888285685506825 0.06921012486910096 -0.09626013835942424 -0.1526744447245791 -0.19499671157147433 0.019580627061628008 0.14521337500647516 -0.12157360219547676 0.10606702544248185 -0.11445712403872528 -0.15413533614293948 0.2894073366313367 -0.050564717819184264 -0.05294254000418241 -0.04015820055595926 -0.23065942707093987 0.24014633934240084 -0.13911400070867022 -0.1568945834564196 0.03795105401376212 0.3012497082755372 -0.05084761629680272 0.006997956085723598 -0.08852747765785032 0.08397701689721765 0.10104164093531467 0.11222223564982414 -0.05866301369324729 0.09079567641900801 0.02587707169555329 0.01210577311655003 0.22944776150020393 0.13032421421863744 0.03259384856603385 0.028664340315436996 0.004682386023420337 0.028888501075876725 0.08469196991063654 0.06236163896470759 -0.00895208737032639 -0.08619598859316997 0.24012271805691557 0.15915432763663498 0.1847958159003709 -0.27990264948960897 0.12001565441086486 -0.15157623468218623 0.04323217470664531 0.18911238155654958 0.0971361857247413 0.12462025488147864 0.07326790436196166 0.015091739380983887 -0.022185359147024918 -0.13427735321425102 0.09193822499868032 -0.1040863328474901 0.07022297865006367 -0.25662083279442144 0.3427779714803438 -0.16447677322336146 -0.028616712831363484 0.24459938339989734 0.22419927128263423 0.14003498952936483 0.1121879004546114 0.16239995338224075 0.15968185289435693 0.05318422935198288 0.10122163446519424 0.3548508516034564 0.16996992701614225 0.051446030193285364 -0.017346173852078012 0.012393984584943266 -0.1365320665409436
user_5:0.014175337207104479 0.10276280496535557 0.08151626726612449 -0.06490587416504111 0.03766693261734742 -0.2304145906652723 0.04006556692599718 0.3304276817611286 -0.04797567240893841 -0.05929831777965384 -0.08211411855050496 -0.283038640660899 -0.051634415851107666 -0.004655596467533282 -0.04004583787173033 -0.1000034413965685 -0.09150856360793114 -0.21290203875729016 0.13940601802564093 -0.22819887048431806 0.05590400848138545 0.08437198686546513 -0.009638818729269718 -0.1416052050356354 -0.0014814806012769363 0.10346396533506257 -0.06604008629385914 -0.18668122829071113 -0.21311629989317485 -0.03215502481907606 0.1258692259767226 -0.019459625822491944 0.02231044275686145 -0.06725448461449039 -0.15897417813539505 0.21105410584381648 -0.005400233103760651 -0.11684444400348834 -0.04779512674680778 -0.24479861823575838 0.14371490451906407 -0.10891919263771602 -0.12802632365907943 -0.08576280410800662 0.25199029807533535 -0.0849572059897972 -0.006200772568783057 -0.04475956622211795 0.061791187418358665 0.05749334586835175 0.09733796305954456 -0.07445385786039489 0.1442488279260163 0.006104114465415478 -0.03848489754766758 0.18298919711794173 0.11177365747945649 0.07841979153454304 -0.10460552092575069 0.029673130118421147 -0.028188311627932956 0.04901422270839768 0.032955295335601216 -0.06173527852765152 -0.1594146326450365 0.08614785061217844 0.15966613883418695 0.1523847867335592 -0.19357946940830775 0.1356787085533142 -0.15469758265784808 0.03419470575006146 0.14527478867343493 0.06240421077901764 0.08479662159723896 0.05201572632150991 0.013130803372145497 -0.08530653906720025 -0.11416926181742124 0.1662494091849242 -0.05223224381916225 0.023598850205806748 -0.26071916414158686 0.25454852304288317 -0.17190666709627425 -0.05504276443805013 0.09907192384291973 0.2627932163221495 0.13773706555366516 0.008224331108587129 0.13154809469623224 0.1880996719534908 0.014270031941123307 0.09986651991494 0.35601270837443216 0.19287497071283205 0.009067307787648003 -0.0667770119117839 0.07077635016425379 -0.09210762621036597
user_6:0.10113666530110334 0.17420239472075513 -0.0577481637071622 -0.05997635095723366 0.07432531384064962 -0.21677244817347904 0.15317959014914537 0.3700487817588605 -0.07887662883455816 -0.1034247805119345 -0.040824353186364626 -0.2833506613969803 -0.03232982215520583 -0.015187329147011042 -0.002543866438300986 -0.08890892094687412 0.0056614079757740625 -0.1518410821690371 0.05715444338458933 -0.3367419152667648 0.06751115006504972 0.1488737453228647 0.07861528300533169 -0.09693779217961587 -0.04517180952978762 0.047418820953584816 -0.0963288496591543 -0.15738961453500547 -0.15775666660384127 0.04203759021076717 0.10474340034354675 -0.13358761840745023 0.11920654102179565 -0.12220022136247471 -0.17453920370654055 0.27962798115454224 -0.058060687304915565 -0.0936273159091606 -0.04271500910583295 -0.21968579723646767 0.205240735784173 -0.14579690992832184 -0.12709810094613777 0.032344913110136986 0.29099072829673167 -0.0010571888108786784 -0.0012753989461711363 -0.13346280777630837 0.07368060912152655 0.11539375899653685 0.08805405721068382 -0.08082579742921026 0.03342432581427458 -0.025732871978298613 -0.010674940275126383 0.1798611485252255 0.08785558815457319 0.013413816430042252 -0.06384990709882818 0.014696751237160674 0.06517884184263255 0.021545028601969152 0.08269847360880751 -0.002697404614943815 -0.11819709700189139 0.2152763319838988 0.1400444582104683 0.16588103222219566 -0.27866754092668233 0.1433728392186918 -0.11510604482732321 0.048348246289319115 0.18051262199878693 0.0707664737649458 0.1288553829255857 0.058435504888429454 -0.009081441958091761 0.017804296589211413 -0.1192699896269723 0.07433138964207549 -0.12356143545261339 0.07098911892573692 -0.25265803305726303 0.2786075225786159 -0.13478843318788628 -0.05129588125763755 0.22886322335781237 0.2057188345413459 0.16904105795057198 0.031375765016204434 0.17733658085528173 0.13504439005383143 0.061080070405487755 0.09102810228145436 0.33334363996982574 0.16668619803692164 0.07636094005092194 -0.03055989448177187 -0.003410001089306254 -0.11520909380755927
user_7:0.08375914600935389 0.17212409716337285 0.027438282689198533 -0.07460570989295523 0.1189923299169366 -0.3028422258001693 0.0872522799590444 0.42163246426176515 -0.08257554221819056 -0.11208308928031871 0.038441386177239224 -0.3170631299627588 -0.09106974452337686 0.012875986504715253 0.06217376206149446 -0.11979015760044469 -0.08422422627026731 -0.10118007131213164 0.0489685899067789 -0.28506586288518093 0.09362678145345776 0.1975349748229727 0.02630463540256816 -0.19169123716493872 -0.048667213681371925 0.06294788119006664 -0.10759306611849907 -0.14583194176567363 -0.2054040825113337 0.03899645153928469 0.1659165163811772 -0.16021061041194232 0.1361873938920016 -0.1436380418413814 -0.15225479387222451 0.3130128745068895 -0.0721812528320291 -0.02363545344052638 -0.03796576070500181 -0.22413937367023307 0.27626803279557127 -0.14696574813507973 -0.17299414156599247 0.08300477860772863 0.3222285509109497 -0.04766430304400583 0.01465561856643267 -0.09536800788656036 0.0942291168773428 0.11536504914785953 0.12028716821619805 -0.05400592091176262 0.07754907028333462 0.043527003764075804 0.035583462323398984 0.25503174088736796 0.1452841971941451 0.019140226876690113 0.09349121968757282 -0.00874065124786439 0.04507648816054806 0.10554737022810398 0.0733521492641538 0.010553979017633074 -0.04857076742151316 0.30363435799533384 0.16941200133333814 0.19955778660926413 -0.3095379316426338 0.11317481116411533 -0.15671757584873666 0.04801980739934964 0.20962474812218485 0.1185459551758113 0.13599041373805798 0.08180644350284909 0.01416446369369217 -0.007518779945886753 -0.1422160252770211 0.06502655857896551 -0.11465071289344354 0.08551045467561864 -0.26031435867573355 0.3831794087557083 -0.17039780730896809 -0.023635906036051504 0.2960227420751719 0.21558926159397085 0.13449812997528848 0.16070918120106958 0.17361223475730164 0.15758411716075338 0.06994723037001058 0.10089034909144678 0.36089259861631595 0.16150583548748748 0.061022352689797894 0.002309738816891579 -0.010376278791536993 -0.1576081213164837
user_8:0.11889806669205427 0.196778679266572 -0.13838014949578792 -0.047824623237829655 0.050733283860608935 -0.16657939460128546 0.24670908134430647 0.33855072408914566 -0.1019300811458379 -0.10810457821935415 -0.08076584901209571 -0.2521833423525095 -0.006645399305853061 -0.052296456531621516 -0.05497586843557656 -0.04113458935171366 0.12010251637548208 -0.17920661997050047 0.01062861274840543 -0.4353356882929802 0.043161672772839665 0.10789691365789622 0.17440678126877174 -0.020123617257922888 -0.085573110205587 0.05441779183456674 -0.11522106733173132 -0.13046360528096557 -0.14104695059359074 0.07568765338510275 0.1273364550434053 -0.19575569848529994 0.12788098957389593 -0.15030759037472308 -0.19999581202864647 0.2541949339210987 -0.06097701319959015 -0.13076223246753216 -0.05210347753018141 -0.19307601731270552 0.12275211210362613 -0.1347585842013359 -0.08619260881096125 0.036659200210124254 0.25783700309693813 0.05240494548343122 -0.0399718820117414 -0.18728782748803496 0.07368638552725315 0.12485800497233868 0.07379361102357507 -0.10504591814242303 -0.013389476283919066 -0.07407614029943943 -0.0622474615520332 0.13232201803475618 0.07844657241366804 -0.02101912209764123 -0.19692521262913942 0.041243211715482175 0.08181150577729568 -0.06973761832341552 0.11110174842178822 0.0034265989816049114 -0.1609884137287736 0.2334977127611637 0.09752576844766736 0.13762138225138187 -0.2592332288622856 0.1719788471236825 -0.1434785583987832 0.06269854516722262 0.15840356145054102 0.04180976329371333 0.10049450350925326 0.05860576359555125 -0.03704878478311002 0.07538777869194746 -0.07015394605696201 0.013545478694140911 -0.16475559654645622 0.09566768608056009 -0.2470934260636568 0.20611029374413192 -0.12997499015182257 -0.0682290238328278 0.19162798597244546 0.16630755923688412 0.18244530074298382 -0.05869227787479758 0.1878696526400745 0.08289570600027218 0.07794847324839793 0.048421527550090104 0.2739154454320669 0.14572753757238388 0.11347784264944494 -0.03495383972040145 -0.001595263951458037 -0.07946967706084251
user_9:0.08004522161021577 0.16547236440040297 0.013480662983857979 -0.06691006028046043 0.10366282626291957 -0.28001306003938287 0.10984206477069627 0.4059990952580662 -0.08416336544757803 -0.10948294944177239 0.018752019200769996 -0.3043599588386083 -0.0801594615795539 0.0017007659564299857 0.03704354716307026 -0.09963619614304123 -0.05357520453537167 -0.1117329587419991 0.04012592587525309 -0.30126183378999516 0.0877803319966977 0.17729078255341216 0.05624183495548728 -0.16602425450869537 -0.06315414978031432 0.06569138762020206 -0.10477827593557916 -0.13278901848500058 -0.20318874009584975 0.04866985728178899 0.17346064388846694 -0.16910193647974234 0.12817033393687363 -0.14789082390903416 -0.16101684408672787 0.2932997487359128 -0.06786077288847606 -0.04459702401418018 -0.03900005220104072 -0.21120939277491327 0.23780133947730064 -0.1359867793271097 -0.15420504394224135 0.07833714267807239 0.30527425923589935 -0.033598785620119614 0.004425480172543203 -0.10256075863213421 0.09049422985290066 0.11082632959646693 0.11493535996493646 -0.06314049363412531 0.06751946336589754 0.032825204796331414 0.015587744472737787 0.2437673471236633 0.14123157304474862 0.01599976876099452 0.04820059149889117 0.002416723797500323 0.044859542969172286 0.0769065574454775 0.07384025191757985 0.01307175710197475 -0.06921229048995144 0.2949722209092924 0.14923782349895623 0.18823111284587343 -0.29287640901945405 0.12261426777152692 -0.15979799129447694 0.05165374061187445 0.2059592954435591 0.1053494813820442 0.1265031047544237 0.0805387724885496 0.008861562592308905 -0.0011783552245568422 -0.13160715264789127 0.05241136670396742 -0.12535083815613288 0.0877645074279379 -0.24855539379483563 0.3501244707632873 -0.16728814059900024 -0.02926740696322236 0.2678142812545017 0.207958380675922 0.13454496557429685 0.12480544203781854 0.18355916415230702 0.14047148334399118 0.07205792694878903 0.09042320801418717 0.3387147175558543 0.15132004868681148 0.0669888584337876 0.00046767015010118484 -0.004897314198788697 -0.1404647232996205
user_10:0.07368731057565463 0.16650688393335594 0.010280119696337926 -0.06819868440690793 0.10108183103760607 -0.2713176004196468 0.12182425308703004 0.3989718540718681 -0.09725442754202768 -0.11279823631048203 0.015600880496142628 -0.29985796542544113 -0.07455059415415714 -0.0026699542313029893 0.026914616164408232 -0.08758615418092201 -0.028404372009007556 -0.12044515007322557 0.03899200491631698 -0.3246330120845845 0.0902570100917824 0.15917066680757622 0.0808654544985314 -0.1586248094314023 -0.07658347528960899 0.08265098868133991 -0.11173834847776513 -0.11818108178283039 -0.20463108585069054 0.05421793656913858 0.19345534710507645 -0.18792073552092342 0.12097523547096276 -0.16525441859113543 -0.16621577112298264 0.28011439270094823 -0.06606110431695063 -0.04772076628317958 -0.04541940487136966 -0.19552844017744064 0.2072116785535687 -0.12370746347465013 -0.14170348742290548 0.07790857494661682 0.28840065394577225 -0.03649165907776669 -0.008505819361552744 -0.10792747351929154 0.09051466870464776 0.10592049534898251 0.10912942278542016 -0.06326779154570479 0.06746942948206867 0.0332176249572321 0.005075831493166716 0.23041158953779622 0.14412698581030495 0.01735746769822742 0.020019022478280885 0.009361105382834611 0.04296694346703589 0.04929310641570115 0.08292005235317017 0.017018435866032775 -0.0755995724497265 0.30624034157709074 0.1374927717996271 0.18731176421830528 -0.27296399834908935 0.13001289885295064 -0.16890332259629903 0.0631892096839453 0.20053390727231377 0.10577360011245075 0.11318266901530717 0.0782659894933826 0.002296311658267912 0.004736175760626793 -0.11758348600644815 0.027845896137143045 -0.1361777799105958 0.0941953352946592 -0.24741283215974508 0.33113968999762283 -0.17149443022514643 -0.03789322708096159 0.2555354756156081 0.20392132472050817 0.13121756636782697 0.10738350087960594 0.18614029825518005 0.12884206069927467 0.08089262641519063 0.07525124055284418 0.33467046524349015 0.14157286168713318 0.06787132277876433 -0.00027703175223187397 0.0016395936254411936 -0.13062802192411924
user_11:0.09216144608466753 0.1816935990537916 0.025086829704897746 -0.08293286982391562 0.12550287528761794 -0.3093559043748038 0.08446432069343116 0.43001230103628973 -0.08639337500291211 -0.11744660453072615 0.04621837962601733 -0.3197910568543843 -0.09804374910891056 0.019149220400556388 0.0777112575513976 -0.11829822739320142 -0.08547171098845345 -0.09016768380367596 0.04668656139568027 -0.2929431472505842 0.09733790663470115 0.2125684067606926 0.027891768980771302 -0.1965856600020613 -0.04384235138505963 0.06830444069845336 -0.11536391058138439 -0.14176526122859545 -0.19826443706239974 0.041186143667437135 0.16430708088779022 -0.16632377059598055 0.14568087160587312 -0.1559386800442423 -0.15156058413641793 0.32651512239660535 -0.07935386411845684 -0.011589446510853512 -0.043001740372606685 -0.2235370010137558 0.2882267666714532 -0.14276810267141887 -0.17644092589616775 0.09390205437583583 0.33068920799664087 -0.042758162969922915 0.012404480490035244 -0.09765451558466469 0.09503471489463533 0.11978810280561447 0.1133987515100411 -0.046857371769978534 0.06949937205894717 0.04469753427963172 0.046857985940628816 0.2533135237438338 0.1432380249989884 0.023734594136476515 0.11340910626043166 -0.011641678127593228 0.05343660141474434 0.10384839695678758 0.08051518562050271 0.022755518928170203 -0.03433052391878196 0.32217013500630853 0.1723824707525117 0.20644220241478511 -0.3188194526093347 0.11275470086506435 -0.15749075348888125 0.05443642589130572 0.2116814856018339 0.12936565476868833 0.1389208108186722 0.07987776191106864 0.017428456379898958 -0.00023901895453621235 -0.1433237807026931 0.05626636327111295 -0.11468348195776343 0.08723880792302745 -0.2563310601881572 0.39238533547946386 -0.17172342262097767 -0.02451374441318746 0.32118314334324427 0.21073477693966458 0.13115492633410863 0.17426982114224562 0.17091308757662774 0.1596838155362223 0.07467504858754442 0.10004704317876272 0.36394998558929986 0.15950098825352532 0.06096035842118519 0.005588707726980959 -0.01875640486500093 -0.16088355971234186
user_12:0.07562656467780471 0.1563196264599499 -0.05948437936604023 -0.03837595463693632 0.03568394593649397 -0.18164516362900796 0.1663531400998564 0.32805121533180537 -0.06187753458997529 -0.07429265806843575 -0.09119370137647677 -0.25764601873724086 -0.005580087658017874 -0.043437870230072326 -0.061379399175118456 -0.08848439902067184 0.026399247458596762 -0.20346758640708254 0.06219857840455676 -0.3258754901195827 0.0422120786756032 0.09469823323352582 0.07680710230526624 -0.06483990680518266 -0.04915847825989323 0.04672513314060205 -0.07251774948580485 -0.1842296124484978 -0.16770025362309657 0.024367791061338625 0.09714077526433884 -0.09086704276820742 0.08521996016957258 -0.06230339491747528 -0.17656115128805763 0.24101713966382177 -0.03840473976513175 -0.1460440919097317 -0.04664731388421435 -0.23403760888858846 0.14722637777020664 -0.15310080271018178 -0.10911046782214391 -0.026164424458616657 0.26217491493413325 0.002323795632324427 -0.005426103212429504 -0.12847180454379045 0.0637334154575671 0.09914651905235491 0.10134087914699003 -0.09930799002023905 0.04971504918495683 -0.04948972840793431 -0.05712481838724527 0.15965473867560687 0.07702321025518406 0.004078915806818067 -0.17980792118530525 0.03426500016480292 0.04043176559437262 0.008604748839340908 0.05869219026001366 -0.051007240716564026 -0.18441555738498114 0.12790550759650374 0.1381019540131092 0.13792685987918 -0.24784422391339353 0.15489211482437035 -0.1293824006264147 0.022611568292823472 0.14574365288411317 0.02669491165771002 0.10332950410482131 0.06712158541440179 -0.021409779456199 0.003065652606126509 -0.10625785618628326 0.11251674386623658 -0.11306507207183658 0.06566013427034609 -0.26068563445618276 0.23104852952651286 -0.13536915830091426 -0.04513553101079244 0.135061505011675 0.21261307852048622 0.18471140296835648 -0.046230956274820004 0.16662139523970454 0.12629462092330582 0.0341825671187651 0.09033462487308211 0.30584750324487686 0.18085674823899017 0.08259907583583538 -0.059086791386729794 0.03399301535989109 -0.09939852886294064
user_13:0.10233115834685472 0.18050617781969217 -0.054683646330466636 -0.06118528781315455 0.08062305116954331 -0.22183961020066187 0.15280546362583453 0.36583388768709624 -0.08062866502083264 -0.10305845665817077 -0.02008617413454116 -0.27417908952786374 -0.03623155232232351 -0.020849521804708414 0.007947349920868874 -0.09126346443708126 0.006718535119524369 -0.14255714426802185 0.03669222459519425 -0.33902643162470597 0.06599538612107818 0.14571958500891924 0.07029563122285673 -0.09931313556332427 -0.05689717578486754 0.04907127398137863 -0.10045828355046418 -0.15503065173442548 -0.15424990596679541 0.038944861779992394 0.11111660247955185 -0.14433587041611856 0.12026906989586468 -0.10976881584009299 -0.16655706327695113 0.29124517280321854 -0.05506777989033323 -0.08820609497622801 -0.050489722536160395 -0.223507454762092 0.20845043573241967 -0.15114850264329177 -0.13055486174730155 0.04080530112752548 0.28969267813059 0.0008642233397740012 -0.004713466632753038 -0.13833575882017612 0.076606517800918 0.11471483197349769 0.09985113774354641 -0.07663867952158818 0.03483748206725487 -0.02049098937557294 -0.014778874277208861 0.18043017043517187 0.09603762447547454 0.0011412849506506552 -0.06042514121733033 0.017546803144236598 0.06248811354789023 0.030621894411384486 0.08269396958012994 -0.010414129624573084 -0.11313833618679872 0.2287618747840707 0.140829202074271 0.1624052765277716 -0.2860310123516963 0.1374576842555633 -0.13293945158903414 0.043304775859444186 0.16806993748132998 0.06915986752853943 0.12537412689282343 0.06667030957312538 -0.011763678039782323 0.024989109343061082 -0.11459442142110604 0.0642380335350306 -0.1320978353301493 0.08382733689191249 -0.25815569781340086 0.2956203377017608 -0.13691639670958886 -0.03247946228545446 0.23382153290395552 0.19659187300847128 0.16822394212851158 0.04255388533839813 0.16504745471936005 0.12851453916384623 0.05298498023946125 0.08627295322143115 0.3185226756792802 0.166852022592838 0.08161164333040898 -0.030094785400881216 0.006395572205432332 -0.12296797335147858
user_14:0.07599181522216115 0.1534673763172967 -0.026775762239204987 -0.051182920046682866 0.04638909901093159 -0.19484115817717143 0.10735626545335565 0.32451160677841734 -0.04495187449668135 -0.07680026282157217 -0.06345557607710361 -0.26667422694819315 -0.020662738010287285 -0.02255076788631933 -0.024375043277229582 -0.10655823882137026 -0.037938189559749196 -0.17969229870608874 0.09240587055683136 -0.2650207334331104 0.05353937577456236 0.1262752183579973 0.019268096956823553 -0.0946187073630946 -0.01634630374610424 0.044039678892918994 -0.061692384869924614 -0.19359494000673294 -0.15825758980853216 -0.0013475223178310053 0.0639100062793919 -0.04233087514460619 0.07598081257726465 -0.05061828265232699 -0.15561675067458833 0.2552620108638491 -0.029345824516245296 -0.1156350543190326 -0.04597784126443522 -0.23997452003615244 0.1976217654134546 -0.15193794667720795 -0.12523878844720976 -0.03221320387508188 0.272922871368272 -0.0199194945661085 0.022296098193952014 -0.10114717463563595 0.05759088695049286 0.0904066019824573 0.0895992921931403 -0.08401691567684923 0.05540268123149872 -0.0305637266220791 -0.027922400938613073 0.161324713911329 0.06903658993542194 0.026349532550999095 -0.10073897561856679 0.008771466889551707 0.039950282645544836 0.050256973531629355 0.0539704156773431 -0.05147447729749339 -0.1427083064668945 0.10413724849266666 0.16037238708564214 0.14466609060764313 -0.2537969670125416 0.1307335144707135 -0.09538642370275088 0.02604034303554467 0.15122161273445403 0.056612438655325344 0.11960604999746595 0.05375212936529091 -0.010492838403609182 -0.029519454709121158 -0.12262713057654244 0.15107984521559306 -0.07162491285375186 0.03601619012520781 -0.254885481936591 0.2549644559621811 -0.11854710962091174 -0.04177232512405941 0.1644097941794566 0.22792329319885798 0.16624421732766287 0.003257701705609049 0.1420620573418481 0.16251832672527858 0.021522125456872994 0.11002424678632192 0.33339373554502216 0.19065294414758682 0.049353892781904767 -0.056665943669421334 0.0212356605500515 -0.11104872077703476
user_15:0.13971590930595995 0.232418492436409 -0.14191831331700086 -0.04067172254435718 0.09494283944368362 -0.21159120425581932 0.273474283516407 0.38957296311855316 -0.12646034676581622 -0.13541710041463376 -0.0045581357349874455 -0.26718405187129973 -0.028579318651463837 -0.045507607189938425 -0.009523902833461762 -0.04973964663222432 0.13897118330933153 -0.11387954875826836 -0.0570267440751195 -0.46855444759130477 0.06960317473858595 0.14865145534276963 0.20974091105163098 -0.05515651851892471 -0.13626645505428314 0.04892206103540957 -0.13727725632488727 -0.0920409955084324 -0.1633228175342083 0.12781962081789972 0.1877932233735919 -0.29976046085357666 0.18152823634445667 -0.20729857035912574 -0.19487919211387633 0.2910408675670624 -0.09690117184072733 -0.08514709742739797 -0.05114668644964695 -0.16908056437969207 0.1631426602602005 -0.1433652952313423 -0.10746537558734418 0.13707729950547218 0.28311480283737184 0.06658214628696442 -0.03633442460559309 -0.21164698470383883 0.09121295101940632 0.14966823980212213 0.0980476588010788 -0.09594646245241165 -0.050071031972765925 -0.04284601574763656 -0.030357290990650654 0.18641250357031822 0.11343260146677495 -0.058689852338284255 -0.09746109684929252 0.03213832071051002 0.11030782535672187 -0.047079105488955976 0.1260983299347572 0.0407534318161197 -0.10327308066189289 0.3736503591760993 0.09481607228517533 0.16181741058826446 -0.3042654603719711 0.16658553332090378 -0.1643056832253933 0.07368291607126594 0.1984939083456993 0.07034003250300884 0.11732196733355522 0.08672533221542836 -0.04028321760706603 0.11310135647654533 -0.08149449937045575 -0.06614082157611847 -0.21581092122942208 0.145092105679214 -0.24344068616628647 0.2764150112867355 -0.14395679906010628 -0.04656213223934173 0.28278731256723405 0.13700104504823685 0.17720841765403747 0.022555234259925783 0.2261676721274853 0.049741719244048 0.1154102511703968 0.03459019879810512 0.2660588338971138 0.11776698380708694 0.14210037272423506 0.012243611650774255 -0.03721682152245194 -0.11476523540914059
user_16:0.015291366437128905 0.10446617158194041 0.06786394005657398 -0.0588613480072597 0.03338434852374685 -0.22404906718895354 0.05628114582464934 0.3222595391602352 -0.04570053156529521 -0.05430038395369875 -0.08685063442279553 -0.27253831460558137 -0.04626821917642293 -0.012985805434913471 -0.04521521905051737 -0.0979435733551609 -0.07450046013751678 -0.2079112683904582 0.12263114291146912 -0.23272008114847645 0.04995349599530214 0.07475909487954502 0.0015967406155862685 -0.1343488912900974 -0.010457200789021263 0.09445335202175996 -0.06620996442205947 -0.1811639305589528 -0.21361437542685147 -0.027699035889436972 0.13092343624809694 -0.025250553422414793 0.025693834538507307 -0.06077689410925939 -0.15573209010321518 0.20456924058240036 -0.01153043315119656 -0.1209351192288711 -0.04841983260522629 -0.2358080179526888 0.13141560361816965 -0.10926241299201703 -0.12027779773905359 -0.08072802056719003 0.24402024262938007 -0.07715179175459619 -0.006381680480915058 -0.05082584368787577 0.0647805539955353 0.05858557253731274 0.10178090542041023 -0.0823241887164527 0.13607339326549192 0.002476488689667192 -0.05135564259574588 0.18234913796186447 0.11383352968199499 0.06803391135201373 -0.11393652650013823 0.036198493936259686 -0.028464671706074272 0.04381388174530504 0.02577316672701774 -0.06225987639406632 -0.16654688942021337 0.08776014876262896 0.15440477096828922 0.14549466556516186 -0.19202776124765134 0.13536072805010038 -0.15874800265863023 0.028059385568385237 0.13894572674200453 0.05375154417586224 0.07571535480433497 0.057029605040262485 0.011711072987587801 -0.0759399090411848 -0.11097518727183342 0.15818633511662483 -0.059747751031456325 0.03086239200663464 -0.25705138979286984 0.24758491382516665 -0.17133307611120158 -0.042972288961554396 0.08897425304969837 0.24799799559445218 0.13825715564448257 -0.0011135316293301254 0.13586909555155655 0.17296101461196767 0.012283800794052538 0.09445447346259808 0.33988933830425655 0.18501741233570823 0.019953171800870192 -0.06989135631713374 0.06753589436893576 -0.0866242002310424
user_17:0.12676319733939387 0.20798013494773346 -0.14683394726704468 -0.04514411428350617 0.06118309708439152 -0.1727285740727728 0.2689698287709193 0.34839511053128674 -0.11467880874194882 -0.11005865122106942 -0.07478270496755034 -0.23929253626953473 -0.013884546589741314 -0.06162183950337666 -0.05029195450796661 -0.03253341604828496 0.1510146178559146 -0.153459237719124 -0.033509655093604866 -0.4626516970721158 0.04178857225832127 0.10684924496507103 0.20148916491730648 -0.017470773690464823 -0.1033854212728329 0.05915556308305399 -0.12813055616888133 -0.11288220503113487 -0.16149375621568074 0.10714019836053591 0.1568247333846309 -0.24649992932311512 0.1485653736374595 -0.18449684943665157 -0.1974048695781014 0.2626133093779737 -0.08057259912179275 -0.1261556983967735 -0.052201614969156006 -0.18401055207306688 0.09812393318861723 -0.12842116200111128 -0.07703780822074888 0.06872280492362651 0.25580632889812643 0.05629411441358653 -0.04784626115790822 -0.20720185000788083 0.07990788854658604 0.13196723942052235 0.0732943769544363 -0.11870236559347673 -0.03348738317832944 -0.0713207412045449 -0.06460292343134907 0.1419345619664951 0.08797441698102788 -0.0409746560564434 -0.1872606735930524 0.05711299684745344 0.09060670905323191 -0.08624888292450289 0.11347591064193031 0.016571175672156227 -0.15574875609441238 0.2851814001967961 0.08536402661014687 0.13486573201688853 -0.26899176700548694 0.1773978021334518 -0.1684529696675864 0.06785822405733845 0.1625195833092386 0.04531421601264314 0.09267639673568985 0.07377849603918465 -0.039948073303094134 0.09926257743923501 -0.06891842863776466 -0.024151204407892445 -0.19265848364342342 0.12311401014978235 -0.24510899795727295 0.21651725979013878 -0.14035455916415562 -0.05595159107311205 0.20093006462874738 0.14643749594688416 0.1753988086499951 -0.05277861266354607 0.20480326224457135 0.05691639660455456 0.08850258551749655 0.034752000038596714 0.2526505433700301 0.12840373847972264 0.1290391417728229 -0.030239672524410045 -0.012187479794110086 -0.08124329429119825
user_18:0.08953957044933405 0.184205897928526 -0.0036785564799275664 -0.07108683501266772 0.11751509830355644 -0.2974835191335943 0.14563097811899045 0.42107198139031726 -0.10942800270600452 -0.12209234479814768 0.02478057501785871 -0.30391140944427913 -0.09206761192116472 -0.004164733820491367 0.04438289207044161 -0.08432695895640387 -0.011206637188378308 -0.09558441520979007 0.003442869560482601 -0.3601744750307666 0.09257000995179017 0.17612570462127528 0.10338660002323902 -0.16559565677824947 -0.08561915655284086 0.08391334313071436 -0.1351241171360016 -0.10402674890226787 -0.21894298907783297 0.07934164011385292 0.22557280254032877 -0.23783317704995474 0.14878572606378132 -0.20663444656464788 -0.167403278251489 0.3020594095190366 -0.08520701729382078 -0.030954099622451596 -0.04787818528711796 -0.19064071277777353 0.20944403774208492 -0.1236484448115031 -0.15053155666424167 0.11109195525447528 0.30099957436323166 -0.030831766159584124 -0.01798396535660787 -0.12888068883007187 0.10583841221200095 0.11733636665404548 0.11310767713520262 -0.07127393518264095 0.052885724994767874 0.0345174435319172 0.012581007555127144 0.2517224848270416 0.15969503298401833 -0.000640836518464817 0.04320713584052606 0.01701847441209894 0.052051820481816925 0.04373405549752837 0.0922219328996208 0.036094397849713765 -0.05865147151052952 0.3705488426817788 0.1311189660595523 0.19539519482188755 -0.29557706746790147 0.13518117326829168 -0.19930881924099392 0.06964730274760061 0.21142286310593286 0.11667423964374596 0.11274160341256195 0.08989318605098459 0.0003460912881160362 0.03260256156014899 -0.11586660808987087 -0.009636834134451218 -0.16054110236776373 0.11821068912589301 -0.25681187791956794 0.35993803375297123 -0.19175267633464602 -0.03351540050546949 0.2928010633008348 0.18666763976216316 0.1280279378924105 0.1276903856002415 0.2025679014623165 0.11534408640323414 0.09843622712004516 0.06335139416882561 0.325645103222794 0.1322767035000854 0.08700597519055009 0.013032115995883942 -0.018026520834407873 -0.13628210996588072
user_19:0.11205286177044566 0.20069241964004256 -0.09931125347925858 -0.05643431833860549 0.0772569644772871 -0.20248746397820386 0.21744211966341193 0.3575539683753794 -0.10748150673779575 -0.10523525219071996 -0.03983976509004027 -0.24835168028419669 -0.03558780571488156 -0.04699339241646654 -0.01697901931633665 -0.05275538313964551 0.09552808859470216 -0.13571933055804533 -0.01921332358721305 -0.4192552011121403 0.05073460140688853 0.125726681901142 0.15119720341383733 -0.06003538696942004 -0.08575452608056366 0.06764432203701952 -0.12329869548028166 -0.11916149864819917 -0.1668830422515219 0.08653186611958187 0.15987090614031663 -0.22139941925309936 0.1453063874082132 -0.16686060376973313 -0.17705647918311032 0.27864819494160736 -0.07648720907640051 -0.09747126211666247 -0.04971255328167568 -0.19972419941967184 0.14230172082104467 -0.13140247118743983 -0.10026273266835646 0.06980423129756343 0.2689442891966213 0.02837331090069545 -0.03694452568147839 -0.17911708016287198 0.08259229175746441 0.1253230282190171 0.08437486721033399 -0.09563259221613407 -0.008471463288349862 -0.04182878422381526 -0.0417870874622498 0.16352154077454048 0.0994709951549091 -0.02372854492965747 -0.1179488398219374 0.04330036315050992 0.07617974424184384 -0.03667430258461867 0.10443708198991689 0.011853019262410024 -0.12847759591584856 0.2863950535909019 0.10724681819027121 0.14626951058479873 -0.2753714458508925 0.1588373018259352 -0.17348104579882187 0.06236209140413187 0.16299287060445006 0.06891210212118247 0.09832258251580325 0.07766528444533999 -0.0266898109217767 0.07475954300554638 -0.08016385595229539 -0.0008231750424866649 -0.1727139362218705 0.11373029776256192 -0.247514354234392 0.2626683048226617 -0.1462921459566463 -0.03878409491682595 0.22271383447911253 0.15959125824949957 0.1640770746902986 0.0033092221393334594 0.18392724509943614 0.08413676913319663 0.07915353567593476 0.04711646178144623 0.27423418448729947 0.14083673838864674 0.11206325617703525 -0.027343996588818052 -0.005629296149973842 -0.10167006369341504
user_20:0.08317377102120142 0.16817607207779298 -0.004057749636111814 -0.06842813438229393 0.09612288135675746 -0.26193256623912275 0.11952939586460656 0.3875023686049277 -0.0864792591483708 -0.103097197648726 -0.00013110442332139142 -0.28991964694700745 -0.07032910128749024 -0.0073124372263504355 0.02404932259059135 -0.09391234800415604 -0.03141932723239031 -0.11959104899627467 0.03617278124581565 -0.3158374492797935 0.07810953985736296 0.16138079291895815 0.06190366384148467 -0.14472585850346245 -0.05686713688651492 0.06796467196392386 -0.10482753636805635 -0.1378128534477008 -0.19384911800162835 0.047632352906491676 0.16283857683945252 -0.1644843315803691 0.12476006612639155 -0.14483450916023893 -0.1604910249772825 0.28678209216971146 -0.06535693436959072 -0.054967931810799134 -0.04195598009646984 -0.2125364794281491 0.21345940042744604 -0.1322593767392008 -0.14275481597634784 0.06078778037376571 0.29186774006015376 -0.029110693657697227 -0.0027191222260259103 -0.11398290024188004 0.08805814757943153 0.10849300379815854 0.1056660881037252 -0.07060910465212114 0.05800031608771206 0.016106747973122094 0.0029843574054865983 0.2178701613294451 0.12908671631298044 0.012416428097486986 0.006463532139988322 0.01309618427164918 0.04394622200695602 0.05485079549212139 0.07367179737009696 0.004965782606680142 -0.08579326206981613 0.27410422894580844 0.14344031121908574 0.17404386858668244 -0.28001522573462706 0.12677337307679026 -0.16058582021740445 0.0512445902108754 0.18681700135532178 0.09764554996549953 0.11631068587303162 0.07670870703530677 0.001998165686688337 0.0073253946887378235 -0.1201461896038892 0.05304778129344381 -0.12569161412191757 0.08679489603494867 -0.25053153932094574 0.32559871085380254 -0.16214582284814433 -0.029477115981934362 0.24710312459552497 0.2005861601547191 0.13904445030187307 0.09521318831901769 0.17412454634904861 0.1346933261834477 0.06673813275860116 0.08228875920503285 0.3274676321368468 0.15354663944035246 0.0683202047673005 -0.013492331815589415 -3.200617880282695e-05 -0.1306683138143598
user_21:0.10936618223786354 0.19133097001097418 -0.049278998098364384 -0.06819090027023446 0.09967362587904614 -0.24128558599587643 0.15575214938232393 0.387976963411678 -0.0946826832086751 -0.11095742596256913 -0.004865162505831739 -0.2801995999885328 -0.059920114412141796 -0.014792583321898499 0.022069086751082177 -0.08402232467337992 0.00919045555885091 -0.11472559443703204 0.01569028723646294 -0.35666541868087015 0.07386790153880914 0.16838170339663824 0.09152629751373421 -0.11421898653674306 -0.06418733487865239 0.06009072844277729 -0.11495880037546158 -0.13451097070267706 -0.1727541353214871 0.06601465300120639 0.1447800864380869 -0.19048238855832483 0.14573146174238485 -0.15803438640961592 -0.16799124465747314 0.2986443318200834 -0.0720233825374056 -0.06012161358993388 -0.04077744229950688 -0.21281293531258902 0.21311263277223616 -0.13995799625461752 -0.13269245635830995 0.07864925733795672 0.2988201921636408 0.00043567961476969 -0.006812018363482573 -0.14285638819406318 0.08520791273225438 0.12319981374523857 0.09413061990882411 -0.07518442234758174 0.021968976093569036 -0.010467943255648468 0.001868230714039369 0.1981440396471457 0.11330994670138214 -0.003370238737922839 -0.013855154400296284 0.014450087751769885 0.07015722260499994 0.027362833910791032 0.0921207946640524 0.017405556035086964 -0.08710909801337754 0.29226677528949396 0.13757444669802985 0.17285607326211352 -0.2953289169253725 0.13674499117063754 -0.1503839141717463 0.05570100930829843 0.18661611504626996 0.09421518116935411 0.12355484407056462 0.07163793006629655 -0.010141741992397741 0.03657753735950047 -0.11145130454590826 0.031790740745650095 -0.14309043712405997 0.09426336872363181 -0.2503249374302951 0.31317349636193476 -0.14357351353674225 -0.03525048780791236 0.2701488066126 0.1863290538842028 0.15211225549379984 0.07717830963630343 0.17695531644152873 0.11709036735930678 0.07713849223783296 0.07420449716631662 0.3166922493414445 0.1515096997221311 0.08416823568316459 -0.010427281710276888 -0.012565751174627098 -0.1287402477905606
user_22:0.12657949700951576 0.21357657574117184 -0.04107918058677266 -0.07532509920808177 0.13505872370054325 -0.2817853589852651 0.15124078947701491 0.42683376496036846 -0.10971886738358687 -0.13298540903876224 0.056807134595146636 -0.3049256081382434 -0.08136883339223762 0.0029125528550745607 0.07150933473409775 -0.0980788740562275 -0.012893401022665785 -0.06832125020203723 -0.0007631760672666132 -0.36049980390816927 0.10015400716414054 0.21571528849502405 0.0897270612573872 -0.15766748452248672 -0.07954700595049265 0.053652569476980716 -0.12861803903554878 -0.11885648251821597 -0.17353838961571455 0.0837084708424906 0.16124939325770052 -0.23198634143166905 0.18413498951122165 -0.18753053030620018 -0.16113780780384937 0.33744487538933754 -0.0940276076629137 -0.014144963439321145 -0.042665907026578985 -0.20116415557761988 0.2783677875995636 -0.14729983794192472 -0.16071800763408342 0.14238790158803263 0.3255527801811695 -0.005053391464268013 0.0029560402617789805 -0.14695619603541368 0.09608624534060557 0.1392079678674539 0.1032054762666424 -0.05499638745095581 0.008582830322363103 0.01879678004964565 0.043312149898459516 0.23329068968693414 0.13196946727111936 -0.013177642882510554 0.09034722209131966 -0.010531581608423343 0.09250017387482028 0.06241259568196256 0.110894407145679 0.04506665386725217 -0.02971583172135676 0.3767439806833863 0.1463169821848472 0.19869607066114744 -0.3334844137231509 0.12116843275725842 -0.14644174091517925 0.06735737862375875 0.21665283044179282 0.1269542658701539 0.14853143660972515 0.08009670102425541 -0.003941279680778583 0.04726120472575227 -0.12749849756558737 -0.002265596432456126 -0.15465082513401285 0.11335570273998503 -0.248664490878582 0.3726922745505969 -0.14997049638380608 -0.029727816620531183 0.35371000692248344 0.18087116008003554 0.14425037459780773 0.15762604539243816 0.19052854708085457 0.12052287623131026 0.09877370559843257 0.07715657545486465 0.33418955095112324 0.14141238387674093 0.09030688542407006 0.02327930034759144 -0.03787251560909984 -0.15976472509404024
user_23:0.06659290101379156 0.146956413363417 0.025265890328834455 -0.08017682012480994 0.08004577085375786 -0.2496904470026493 0.0671387172381704 0.37112946684161824 -0.06620589923113585 -0.08669859264045954 -0.04493835320075353 -0.2889845110476017 -0.06931402185000479 -0.0005173127477367719 0.012255129404366016 -0.10520298227978249 -0.07302518251041572 -0.14749864333619675 0.08519482406942795 -0.2726471734543641 0.06321457121521235 0.14844348235055804 0.01177260729794701 -0.14424359464707473 -0.0035202864091843367 0.07697291967148583 -0.08944127149879932 -0.17126284912228584 -0.19177026115357876 0.012501074389244119 0.11709223676007241 -0.08306069881655276 0.09440831071697176 -0.10821153378734986 -0.15756147975722948 0.2759554696579774 -0.04827477406555166 -0.07464168895967305 -0.039087297860533 -0.2426269787053267 0.2051415714280059 -0.1279209510733684 -0.14068852846200267 -0.006056746157507102 0.28688260167837143 -0.04894859452421466 0.00807720639083224 -0.08321958431042731 0.07544883790736397 0.09028769594927628 0.08979406704505284 -0.07480848324485123 0.09234491425255935 0.0052497217354054255 -0.003106296450520555 0.18873699164638916 0.10238373172857489 0.05002247772548193 -0.01296801232577612 0.017679086449788883 0.024016176893686254 0.061827218160033226 0.05780984197432796 -0.016722107577758532 -0.10975354366625349 0.18137250972601274 0.16947117634117603 0.16783180832862854 -0.26265470931927365 0.12967582046985626 -0.1433814950287342 0.04572490932575116 0.166347773745656 0.0873302398249507 0.11417573442061742 0.06314771296456456 0.014372522903916737 -0.02528074212993185 -0.1273446585983038 0.11900543964778383 -0.08079042792087421 0.047658293042331934 -0.25514068951209384 0.3076264715443055 -0.15524512839814028 -0.03661753493361175 0.20719477805929878 0.22451064238945642 0.1388633226354917 0.07110631372294544 0.14479814500858387 0.1715490867694219 0.039033491254182685 0.1001040570748349 0.3503943520287673 0.17290124855935574 0.041826175060123205 -0.0482326738225917 0.019819155102595687 -0.11718735316147406
user_24:0.09628597327641078 0.17777983950717108 -0.04314228666148016 -0.06442277479384627 0.07650292438587972 -0.21493227566991532 0.14513410494795867 0.34868568181991577 -0.0742312166839838 -0.09044165669807366 -0.03514884525377836 -0.26175858293260845 -0.047486288872148306 -0.027452447651220218 0.009073871320911817 -0.08530450332909822 0.00789927105818476 -0.13399033514516695 0.028867996696914946 -0.3281732371875218 0.058784394591514556 0.14045553069029534 0.06516597606241703 -0.08801598713866302 -0.042848557233810425 0.05874107511980193 -0.09569300924028669 -0.15771458138312613 -0.15676608788115637 0.03844327509536275 0.1074596518717174 -0.13234724796244077 0.11661351844668388 -0.11875117809644767 -0.15982326226575033 0.28755645879677366 -0.04814694223127195 -0.08152168257428068 -0.04838316621524947 -0.22478499795709336 0.19452378366674697 -0.13795658307416098 -0.1175711452960968 0.023869688223515238 0.28143529168197085 -0.004075428304661598 -0.007315940955387694 -0.12772656019244874 0.07477648077266556 0.10688196548393794 0.08565119334629603 -0.08023628326398986 0.035555178565638404 -0.03246357079063143 -0.018163052520581653 0.16815164153065001 0.09017384078885828 0.010455389789837812 -0.06492143363824912 0.021629433280655315 0.05519023813706424 0.027502741731171097 0.07380882118429456 -0.019216711366815225 -0.11131336240630064 0.21258642737354552 0.14159442058631352 0.15404759986060007 -0.27201771097523825 0.13388404888766153 -0.14066884240933827 0.0395722020683544 0.1577871846301215 0.08143225680604312 0.11280043316738946 0.06827140067304883 -0.007498014186109815 0.023033352103084326 -0.10793222859501839 0.0698404780455998 -0.1244805423276765 0.07843833789229393 -0.2514774331024715 0.2782186397484371 -0.13384903967380524 -0.032111095796738355 0.21983738935419492 0.19043977665049688 0.1597421584384782 0.03470348457007536 0.15311256051063538 0.13294335268437862 0.0491121859688844 0.08060616680553981 0.31225056520530153 0.16915563281093324 0.07965828398508686 -0.03801916300186089 0.0020819640319262233 -0.11639425797121865
user_25:0.06013697902343642 0.14550468913064554 0.006391554044780488 -0.05690247373273357 0.06920277389312665 -0.2388089116758261 0.10494897121008342 0.3609905475989366 -0.06527846488349426 -0.08135053238425499 -0.04326330173427824 -0.276612360508014 -0.05404519491220036 -0.01773253593665476 -0.006209874492831146 -0.10306143086069287 -0.04229466076970148 -0.15728672366598262 0.060707833441810154 -0.28274624126079756 0.06019060482653097 0.1314025739661585 0.03546774323853569 -0.12931126803876117 -0.03410711975839849 0.06322093374239138 -0.08649029195881806 -0.16454784027658975 -0.19826020319492388 0.020723191130972013 0.13704851205842808 -0.10250292807662238 0.09008311963407323 -0.09395208824216986 -0.15748002886390075 0.2615246591277612 -0.049167263643959395 -0.08745384395110588 -0.040756119056963004 -0.22919690628082323 0.18817391141484946 -0.13814538936966506 -0.13394277504621407 0.004508751098257609 0.2776102614708436 -0.034782484017061785 0.002701036104274233 -0.09603465459225938 0.07749582024721 0.09453451647781409 0.11015974037731305 -0.08087273604439524 0.08343395429890221 0.0021126138468762524 -0.023107268834838834 0.20199662571152052 0.11268015270336317 0.024541895277648926 -0.050668298959349975 0.023825575961009003 0.02196452278906527 0.05829399436389884 0.049929471308878884 -0.030198642792992104 -0.12714699720844436 0.18878340217410228 0.15359351984583414 0.16014369214192414 -0.25971225992991376 0.13016925780819014 -0.15495779164708579 0.0308739664064771 0.1643700201350909 0.06881081451529798 0.10371670618844338 0.07280248675781947 0.006055153880226545 -0.01479263074370698 -0.12180220154233468 0.10493423810037665 -0.10356293814197087 0.06488552874025817 -0.2549470678353921 0.29924686577839726 -0.1592895368543955 -0.027651861526418287 0.18485711867180774 0.21494761415016958 0.147273894208364 0.047347750690114945 0.15919555203081706 0.14764171030420142 0.038980035813624574 0.09530287228214245 0.32866494281169695 0.1707593895112857 0.06330118864589633 -0.04311358503018243 0.02343449147585302 -0.1156471677793142
user_26:0.09019308845544684 0.18001539131690716 -0.03532805875072192 -0.06035585161940805 0.08095014201284483 -0.24289004042230802 0.16182417576682978 0.37883137474799977 -0.0877714684265184 -0.10025721083491526 -0.01790733258079352 -0.2783273345437543 -0.05360602771317394 -0.02624586415436954 -0.0015513248789798596 -0.08626406922422607 0.01564580764107663 -0.14171450800896654 0.018840929019618136 -0.3525157406412322 0.06576017341737089 0.14107618556390034 0.09288041681454694 -0.11589355474530623 -0.0775461576734509 0.06845480524774256 -0.10725749691884065 -0.13808053192393532 -0.1906456633888442 0.05689072881921612 0.16519773915281583 -0.17823724264824956 0.12639139669722524 -0.13826707037615366 -0.1696608092250495 0.27812838914065524 -0.06249191646528398 -0.08215712038759977 -0.04889084475821462 -0.21163049006256565 0.18585644880759306 -0.14131176317560262 -0.1307311844209145 0.054561248065197264 0.28886163234710693 -0.011556289614386985 -0.014561097755835488 -0.13625974574222646 0.08640700270389688 0.11431955181640284 0.10841894946221647 -0.08210865882674939 0.04469942173856343 -0.0076769946207260265 -0.01976885577535321 0.2064168004897134 0.12359147106000254 -0.003940693696896578 -0.05914501956631911 0.024549082070107347 0.05318490407782896 0.02579353730884734 0.07909007187418897 -0.00627958024691405 -0.11218646210457744 0.2676524769771716 0.13411541758426304 0.165967912252607 -0.28107096511742163 0.14414276311109805 -0.17288388286171288 0.0449211805625337 0.17789557396337904 0.07919550724006419 0.10741132472095818 0.08337721793816008 -0.01408206907518465 0.02639996194368999 -0.10891327197695601 0.041169486887720895 -0.1432110380847007 0.09961648612957576 -0.26048383219488735 0.3056636781528078 -0.15940752882381964 -0.03200169758277078 0.22689163283412828 0.19523507125418763 0.15621712726765666 0.05372919533241155 0.18154307287828675 0.11738093797888222 0.06768130000423768 0.07361785967930637 0.31295603102651137 0.15717041877837018 0.08769665350174081 -0.019369158315761335 0.008469507804718512 -0.12658844554218754
user_27:0.05828814232553981 0.14145773549976406 0.05584548668054192 -0.07294505330749222 0.09096292307749237 -0.28111586524326293 0.05982289361084246 0.3904756351572568 -0.0633510486719 -0.0899993941172591 -0.0008245256069101027 -0.307796841762105 -0.07977459746122849 0.01002458982135276 0.032229076048023386 -0.11718541968491722 -0.10540704075705076 -0.13912642340950637 0.08654702032656698 -0.2510196751014131 0.08148674148547112 0.16312661507457007 -0.0013539122110309049 -0.17979867127342303 -0.026482448017140697 0.07238751459775157 -0.08819017365391625 -0.165163980216765 -0.20461029999080252 0.004522349651078465 0.1423069283053218 -0.09481826644070203 0.09338720113451242 -0.1055903471013928 -0.151730585904395 0.28171331960646834 -0.044717879776965036 -0.05571471756518834 -0.043618446979366364 -0.23656497456011225 0.2412766617585401 -0.1383625414283549 -0.16244429581966557 0.01885329813650641 0.304029325481321 -0.06522230642034718 0.012946770301033346 -0.0698419634164998 0.08316322632866804 0.09244232756792058 0.1167073448295476 -0.05786214997232357 0.10908270242135422 0.033504521100186424 0.01575707708729706 0.23474786125245642 0.1331364314881016 0.04504134168669001 0.03525482319280139 0.0026664595466992648 0.01603440722339924 0.1006289772196963 0.051116566526795144 -0.018230576854443452 -0.08794241595524745 0.21655841023645928 0.16949326080865548 0.18727295406040598 -0.27447314364988296 0.11764481040786524 -0.15143641524138998 0.03673164838195977 0.1859614179149026 0.09750660837863641 0.12260405493320012 0.0699704138058253 0.018960681495821623 -0.04199067117516562 -0.13974528381081877 0.11561777282384086 -0.08734471161208558 0.056793668826461814 -0.2634091049921317 0.3455775102875272 -0.16866532420037222 -0.028313445480784676 0.22894001797940888 0.23829751644955308 0.13670192658901215 0.11439433005317802 0.15566605793648078 0.1754422152995086 0.043777741866804595 0.1090154975164132 0.36511540217477767 0.17766880708151175 0.03887820633731355 -0.021788010373711586 0.018792754966674038 -0.13859841160354067
user_28:0.12385681281356435 0.2195218613273219 -0.08811633504535023 -0.062189643026182524 0.11411645500859442 -0.2523558912308593 0.20743844109146217 0.41069613161839935 -0.12034299450093194 -0.12823113583420453 0.019034308147016225 -0.2844867149465962 -0.06088969657369154 -0.022740776871183987 0.029350397238311798 -0.06987029117973227 0.06196234752669146 -0.0955309910993827 -0.031141140155102078 -0.4143750863639932 0.08182499106777341 0.17811887201509977 0.1520902595611436 -0.11171535397634695 -0.1096886575810219 0.05693442411230583 -0.1332254858785554 -0.10714632860924068 -0.18483516377838036 0.10601744271422688 0.19358500681425395 -0.2686691799838292 0.17858262433621444 -0.2019765704478088 -0.1753402713098024 0.3096870387855329 -0.09840076334627443 -0.05051782300793811 -0.042502096609065405 -0.18735023391874214 0.21019722776193367 -0.1407116796625288 -0.13098974506321706 0.13633647845371774 0.303959102222794 0.026137593502521907 -0.019871385094072474 -0.17421421310619303 0.09756469177572351 0.1376359670570022 0.10438652395417816 -0.08094610881648566 -0.012316418909712842 -0.005272737973810811 0.0021922868725500607 0.21653643172038228 0.13157831661795316 -0.034153681469002835 -0.0059506077025281755 0.01559762293963056 0.09524042580864932 0.008100970795280054 0.11471278019445508 0.04388986804865693 -0.07055946290002842 0.37904997022920534 0.12202011401716031 0.17820746020266884 -0.3204021681296198 0.1473587680804102 -0.17223167301792847 0.06824111428699996 0.20683468995909943 0.10008880143102847 0.1250117448599715 0.08830270288806212 -0.019767256000226264 0.07777092899931104 -0.10459463886524502 -0.029930814383796564 -0.18375193484519659 0.12974401583012782 -0.24584196115794935 0.3287044457699123 -0.1548282523688517 -0.03554981907731608 0.3076282236725092 0.1635106249075187 0.1538481045710413 0.08869064794118076 0.20840926782081 0.08609735438796251 0.10808463504930076 0.054825702412544114 0.2969993399946313 0.12668538838624954 0.11689629876299908 0.012483798901820066 -0.03257642794204386 -0.1333625444064015
user_29:0.06038093132481567 0.14622612326945128 0.03728073657686381 -0.06516383161866351 0.0803013097212993 -0.2608673282359776 0.06823000392729514 0.3734277973049565 -0.05723441912988691 -0.08434136608909619 -0.01797883614275825 -0.2939345918987927 -0.06573062001629487 0.0012248374252138954 0.018678779468724604 -0.12197065294573181 -0.08927708070136998 -0.14814234460477324 0.08898409320911589 -0.24919421559101657 0.07000431856814478 0.15345239624577134 -0.002892495194253953 -0.161673581668813 -0.01857157501906745 0.06575676980183313 -0.08204228889295145 -0.1769325311638807 -0.1944940101943518 0.0009824032803360176 0.12219302472658455 -0.07822363683953881 0.08794619858657059 -0.08327912920503877 -0.14827153498404905 0.274742154306487 -0.044371039802698714 -0.06652318079508596 -0.041615877986738554 -0.24138372587530235 0.23226588258617803 -0.14219076166811742 -0.15283655904625593 0.004438508314227587 0.2960034616683659 -0.055157110474905686 0.012264334403689167 -0.07632247481103006 0.07848240033184227 0.09095967658121433 0.11383885860835251 -0.06366951038791357 0.09976123271534514 0.016063965501655873 -0.00010795334789068683 0.2152700951617015 0.11826357529743721 0.03962691337801516 0.002670542435034325 0.00416801251336246 0.02020936577747833 0.09346103532497134 0.048189330732719485 -0.029593075797157854 -0.09944313088137853 0.1854173890805166 0.17252101455079882 0.1730845480373031 -0.270860880613327 0.11691992102484954 -0.14365825498182522 0.02956970602422428 0.17111748280493835 0.08587276170261535 0.11800779990459744 0.06981959461087459 0.011465430252045687 -0.03762303136356518 -0.13653809263517983 0.12734966533944794 -0.08264147406934123 0.05211032322289324 -0.2606840698342574 0.32526445075085286 -0.1595435669939769 -0.026307378852690914 0.2105533908072271 0.233320123859142 0.14439963353307625 0.08722921465768625 0.14528626566262623 0.1724152576766516 0.0335168051219386 0.10942753512216241 0.3561399598654948 0.18222535578043839 0.04218430093514096 -0.0375197327597753 0.023995565054448026 -0.13183043995185903
user_30:0.03484839306805621 0.12736039845780892 0.05670716765929352 -0.0779802982102741 0.06826632740822705 -0.2578971182758158 0.0849539170475592 0.3535105992447246 -0.07932754843072458 -0.0840142084793611 -0.03730095734565773 -0.28163702244108374 -0.07139009643684734 -0.008055056275969202 -0.0073977322317659855 -0.07909270088103684 -0.053085135126655754 -0.1726714697751132 0.08510553201829846 -0.2925800010561943 0.06411232242614708 0.10310348258777098 0.04826655637853863 -0.15158659829334778 -0.04209082440303808 0.11004176464947787 -0.10146297717636282 -0.13057687506079674 -0.21427214281125503 0.006993889977986162 0.18620033020322974 -0.11546408664435148 0.05941230320075357 -0.13955166944387284 -0.16269418732686478 0.23644110560417175 -0.03312537132296711 -0.08160563274710016 -0.05511221188035878 -0.20958298647945578 0.14161672002889894 -0.09788401966745203 -0.12924016842787917 -0.011307686905969273 0.25397237593477423 -0.07326519540087743 -0.024372431048752995 -0.07407506650567731 0.08304582333022897 0.07461391013665972 0.10066726769913327 -0.06868192655119029 0.12015036209909753 0.026187622369351713 -0.026184442643584174 0.20252527025612918 0.1414209617809816 0.059956010515716945 -0.05847583440217105 0.03392654518723826 -0.007198874732818116 0.02738118628886613 0.05920708780600266 -0.013014683372933756 -0.11904996684329076 0.20864633961834692 0.13272736119953069 0.1693060648712245 -0.21536377478729596 0.13924610005183655 -0.18860225244001907 0.058535800061442635 0.16451158713210712 0.08846751261841167 0.08099387619983066 0.06351225619966333 0.006891333159397949 -0.035711809400130405 -0.09768568893725221 0.07646950452842495 -0.10146343204277483 0.0672497076236389 -0.2604940614917062 0.28190813010389154 -0.18650395423173904 -0.05119621787558903 0.16277356513521887 0.22775694998827847 0.12327281182462518 0.0535727965391495 0.15615726296197285 0.15244922211224382 0.0510886113836684 0.06977526754648848 0.3341951370239258 0.15852772918614474 0.03494722006673163 -0.035434614020315086 0.04069126010025767 -0.0975810160691088
user_31:0.08903378248214722 0.1632993519306183 -0.10406171754002572 -0.03642995730042457 0.009445674857124687 -0.12311756014823913 0.19909817576408387 0.2757147133350372 -0.06242608241736889 -0.050252515263855456 -0.1565486490726471 -0.20966432094573975 0.015645318292081357 -0.0778839148581028 -0.10669468641281128 -0.06751677431166173 0.09382939860224723 -0.22929805219173433 0.03525472655892372 -0.36110289096832277 0.008806725684553384 0.04215974435210228 0.09159511961042881 0.0031512852758169172 -0.03724343180656433 0.04644076600670814 -0.06968837231397629 -0.19898733198642732 -0.13656246662139893 0.0249633451923728 0.05817487416788936 -0.07310025356709957 0.06573491748422385 -0.043137005902826785 -0.18060113489627838 0.22327925860881806 -0.028003407828509807 -0.19463547468185424 -0.04708750694990158 -0.24643840193748473 0.07703455239534378 -0.13904883563518525 -0.06696239113807678 -0.0745136022567749 0.22664716839790344 0.02930446828249842 -0.026590426452457905 -0.16092898994684218 0.050152819603681564 0.09059350788593293 0.08037707209587097 -0.13368467539548873 0.014823916554450988 -0.1019430972635746 -0.10655635744333267 0.09157886654138565 0.03587756920605898 -0.00361807593726553 -0.3000058114528656 0.0691385693848133 0.03824851559475064 -0.05752353984862566 0.05115234740078449 -0.07175813242793083 -0.2374822288751602 0.0632527383044362 0.12220285832881927 0.0937122255563736 -0.21918722987174988 0.1630360633134842 -0.13666399121284484 0.015441047120839357 0.0916034609079361 -0.002139565907418728 0.07948953211307526 0.054519441723823545 -0.04306609183549881 0.02041799696162343 -0.0824508547782898 0.13403405714780092 -0.11173655390739441 0.061510901898145676 -0.25830147564411166 0.16164806336164475 -0.1113462969660759 -0.039217309281229976 0.0656205415725708 0.19767693877220155 0.18933116495609284 -0.13941631466150284 0.1317848339676857 0.11347512006759644 0.014233478787355125 0.06686580888926982 0.26678177118301394 0.18388499170541764 0.08038631454110146 -0.0991637334227562 0.05368866510689259 -0.06375533416867256
user_32:0.11129101764942918 0.18894849398306438 -0.1947746447154454 -0.015557113203353115 -0.004124513162033898 -0.0979518277038421 0.29395703758512226 0.2877654028790338 -0.07665792120886701 -0.07184690622878927 -0.16653471721344562 -0.2184075489640236 0.05676550216906305 -0.09382763032668404 -0.13806779735854693 -0.04596235361948077 0.1793302252855418 -0.2516522529934134 0.013257133163278922 -0.4435015938111714 0.010029702746708478 0.04148689799019069 0.1909463328442403 0.04968781058310664 -0.0889526242390275 0.0277942138657506 -0.0790683850646019 -0.18187166431120463 -0.13989493729812758 0.06304206788107487 0.08428203593939543 -0.13924779742956161 0.09553311778498548 -0.07341993917777602 -0.21011224069765636 0.2113045198576791 -0.05353415127111865 -0.22491571786148207 -0.0552885535040072 -0.21630738036973135 0.04745843105151185 -0.15700396788971765 -0.055772795591370335 -0.038613880585346906 0.2295007993068014 0.08219456642733089 -0.03690412638908518 -0.2067574534033026 0.05262296593614987 0.11639241820999555 0.07819525950721332 -0.14571365607636316 -0.029978965808238302 -0.13050716663045542 -0.12460893312735218 0.09594769483166081 0.031820453416522856 -0.045459254698861126 -0.37279145259942326 0.0699810712332172 0.07758929434099368 -0.10829030270023006 0.08262716340167182 -0.05681374974249463 -0.25823705164449556 0.10826619915730719 0.09686926353190627 0.09815624036959239 -0.23574023693799973 0.20092525971787317 -0.12767548486590385 0.03187735634024388 0.12292803211935929 -0.020713830632822856 0.0800320418285472 0.06429649543549333 -0.06362888030707836 0.07009821884067995 -0.06832944841257163 0.06897464487701654 -0.15963250292199 0.09089312542762075 -0.25905622435467585 0.12704015842505864 -0.11300354504159518 -0.066612279707832 0.07541264610231987 0.1723973016653742 0.22517091568027223 -0.18832509565566266 0.19002930873206683 0.06668778622822304 0.048329852215829305 0.054553701442533305 0.24722315051725932 0.172215252582516 0.13466119287269457 -0.08051938224317771 0.028086205927788148 -0.05894274251269443
user_33:0.12777106603607535 0.2149465409192172 -0.22305228874425997 -0.017256694615505032 0.017173737795515495 -0.11704308421097019 0.33730344474315643 0.32596756382422015 -0.10621605068445206 -0.09746577285907486 -0.14581954051655802 -0.22541499137878418 0.04456072072075172 -0.09566651826555078 -0.12277571755376729 -0.024552986618470062 0.22551926530220293 -0.21735051816160028 -0.0372471129945056 -0.5062655075029894 0.01966325794769959 0.05979813293511556 0.25277769193053246 0.05256187069145116 -0.12566141343929552 0.03429536827289584 -0.11050554703582417 -0.14093600924719463 -0.15164557573470203 0.11672730642286214 0.13644238662990657 -0.2382710508324883 0.1368617183550007 -0.1436845138669014 -0.22053567658771167 0.23387147757140073 -0.07575777867300944 -0.198768058961088 -0.049775782972574234 -0.1849353008649566 0.03988543212075125 -0.14401638507843018 -0.051313113908029416 0.02862164310433648 0.2340576093305241 0.10514664887027307 -0.04768928783861073 -0.2360356863249432 0.0697678496891802 0.13095576824112373 0.076900875703855 -0.15765223787589508 -0.06341588332063773 -0.11788809612732042 -0.11735843477601354 0.11693048917434433 0.056142467984252355 -0.06814853609962897 -0.340327573093501 0.0752483606338501 0.10142065923322331 -0.13451506637714125 0.10758767598731951 -0.012420506978576834 -0.2329863817854361 0.21867022358558394 0.07568040490150452 0.10963454978032545 -0.25553115525028924 0.20934807847846637 -0.15108336372808975 0.0536150930618698 0.15104163234884088 -0.008596926758235151 0.08608015762134032 0.0778758864511143 -0.06809574348682707 0.11556230214509097 -0.06109695068814538 -0.007496064274825833 -0.20606405287981033 0.1251736908135089 -0.25215874070470984 0.14655002714558082 -0.12767686762593008 -0.07089304212819446 0.12561932375485246 0.14474927159872922 0.21796431053768506 -0.16386983478018505 0.22897533936934036 0.03338051025374708 0.08534936877814206 0.03371934660456397 0.22971714626659046 0.13738172298127954 0.16205100003968587 -0.05055778253484856 -0.0039150293450802565 -0.056674381040714004
user_34:0.07696290984749794 0.16947615494330723 -0.04336953895787398 -0.04538719723932445 0.062354587096100055 -0.22244868750373523 0.17546366366247337 0.3598714888095856 -0.08101511909626424 -0.09640928463389477 -0.034900249013056356 -0.27045492629210155 -0.03644154748568932 -0.03616260594377915 -0.023121460154652596 -0.08151862863451242 0.030536982168753942 -0.16138987810894226 0.02558037092288335 -0.34878687957922616 0.0644981578613321 0.12231046011050542 0.10384494674702485 -0.09779883114000161 -0.08723009439806144 0.059232102675984305 -0.09556834424535433 -0.14031083434820174 -0.1872503290573756 0.055119037597129744 0.16082436249901852 -0.16432454027235507 0.10953213296209773 -0.11502074506133794 -0.17349367837111154 0.2602922260761261 -0.05173987161057691 -0.10352607586731513 -0.048886396115024884 -0.20349087864160537 0.17338514079650244 -0.14315310021241506 -0.1231154628098011 0.039294882615407305 0.2757115105787913 -0.0015038705275704463 -0.016148940225442252 -0.14039846708377202 0.07935791810353597 0.10987032825748126 0.11359934856494268 -0.08602218627929688 0.04319892299051086 -0.013326013088226318 -0.03926462046802044 0.20325141847133638 0.11863035298883914 -0.007694988201061885 -0.10112074458350738 0.032185149588622154 0.04721714815047259 0.015688633794585863 0.0726173653267324 -0.022447274376948673 -0.13607247928157448 0.23179825122157732 0.12562797591090202 0.15505850811799368 -0.2630208810170492 0.14773105631272 -0.1613613118728002 0.03705313385774692 0.1745048828423023 0.059563823882490395 0.10475325087706248 0.07971421778202056 -0.01775302408883969 0.01869049764548739 -0.10353806093335152 0.052035088961323105 -0.14949694133053223 0.09480693712830543 -0.25224658449490867 0.2800906836986542 -0.15321849236885707 -0.03538071339329084 0.1933866122116645 0.20346946865320206 0.16713724931081136 0.017496307923768956 0.18920761520663898 0.11028196895495057 0.06283087527845055 0.06979283898447951 0.30422648290793103 0.1621402199069659 0.09532116036086033 -0.024521717429161073 0.016663036526491246 -0.11902140205105145
user_35:0.12563427090644835 0.21440167278051375 -0.18724495843052863 -0.020275759024480068 0.04766271440312266 -0.1707154404371977 0.31151384934782983 0.36265532225370406 -0.10597405135631562 -0.10996969155967236 -0.0850959304254502 -0.2541943475604057 0.01611314626643434 -0.07344566727988422 -0.08416960593312979 -0.04239769959822297 0.17319399006664754 -0.18517393283545971 -0.03269321438856423 -0.4742373675107956 0.05101692809839733 0.09352402229851578 0.23662136010825635 -0.011938505806028843 -0.14571438357234 0.02856423583580181 -0.10726535357534886 -0.12918018959462643 -0.16803810521960258 0.11826659552752972 0.17532580643892287 -0.256301049888134 0.15301807150244712 -0.1544991357252002 -0.2089810773730278 0.25206063240766524 -0.0888318583369255 -0.15446238340809942 -0.04360357392579317 -0.17475189492106438 0.10544023825787008 -0.1557704970240593 -0.0848748761927709 0.07172193247824907 0.2556270807981491 0.0858599979430437 -0.03399454075843096 -0.2137798473238945 0.08045493885874748 0.13494729474186898 0.1015037402510643 -0.12849135403521358 -0.040414957562461495 -0.07050610156729817 -0.07738785222172737 0.17433912120759487 0.08959592701867222 -0.07291253879666329 -0.23679178208112717 0.05099869892001152 0.09890545643866062 -0.08020598217844963 0.1023186169564724 0.0013572655618190766 -0.17662285775877534 0.27778951367363336 0.08788252249360085 0.1301247537136078 -0.27745806574821474 0.19149731248617172 -0.15330841653048993 0.048943812120705844 0.18080334588885308 0.020024538692086934 0.10116769447922706 0.0863166805356741 -0.05377112310379743 0.09771732590161264 -0.07657125443220139 -0.020672301948070525 -0.20767080038785934 0.13601898923516273 -0.2515655368566513 0.2069253262132406 -0.14180349111557006 -0.06321218851953744 0.1814002426341176 0.1536651909351349 0.20395220518112184 -0.08288688661996275 0.24294163584709166 0.040211448876652865 0.1010948110371828 0.04022964392788708 0.24827480167150498 0.1264798618853092 0.15672758892178534 -0.018861375743290408 -0.018448259006254374 -0.08825373258441686
user_36:0.09955189973115922 0.16726957857608796 -0.19899202063679694 -0.0030524001456797125 -0.029289658181369305 -0.07209531897678971 0.2845347851514816 0.268889120221138 -0.06247232630848885 -0.05540454238653183 -0.20489549934864043 -0.2109743297100067 0.07188761997967959 -0.10221279859542846 -0.16695444732904435 -0.05218253508210182 0.16635100692510604 -0.28595382273197173 0.04445604607462883 -0.4198082029819489 -0.003775120328646153 0.016085512936115265 0.1682136833667755 0.07329536514589563 -0.06838020151481032 0.015924771316349506 -0.06355404257774352 -0.2104947030544281 -0.12562744915485383 0.04124333984218538 0.0502283550798893 -0.08070997223258018 0.07259508222341537 -0.03715180153958499 -0.21119195520877837 0.19222250878810881 -0.04159076809883118 -0.25200493037700655 -0.05155445635318756 -0.23141739070415496 0.03272460326552391 -0.16433440446853637 -0.04226099941879511 -0.08439276963472367 0.2143178552389145 0.08247346635907889 -0.02723931446671486 -0.1948643445968628 0.04250081032514572 0.10678038150072097 0.07060525417327881 -0.1549759700894356 -0.015325290337204932 -0.13691885769367218 -0.13466951847076417 0.07892663404345512 0.008932790346443653 -0.03384853210300207 -0.426952463388443 0.07650695443153381 0.06796934232115745 -0.10387796945869923 0.06351789981126785 -0.0838421143591404 -0.2956055164337158 0.0247322179377079 0.10438168048858643 0.08638816252350807 -0.211817142367363 0.20963431596755983 -0.10233068838715553 0.01105352509766817 0.10803069621324539 -0.05256332540884614 0.08256019055843353 0.05537014529109001 -0.0660575458779931 0.0548582156188786 -0.07114992961287499 0.11468550264835357 -0.1360162615776062 0.06504039838910103 -0.26320608258247374 0.09191256389021873 -0.10686152428388596 -0.07023569494485855 0.01893378123641014 0.1920003831386566 0.2372528851032257 -0.2378751516342163 0.18677442371845246 0.0714026264846325 0.03681381903588772 0.07052919864654542 0.24706717133522033 0.18221034109592438 0.1267365038394928 -0.10324161797761917 0.034353936277329924 -0.04688161239027977
user_37:0.0652538674250948 0.14508472938301428 -0.03520847697641244 -0.05210178721924576 0.027897925279762176 -0.1671307069372456 0.12712113763082702 0.29935243978815257 -0.04972555627167787 -0.054642621172978634 -0.11264161207495732 -0.23550500959720252 -0.012314002148209597 -0.0452659421266531 -0.06263490857222592 -0.08875160906815303 0.005067865164645175 -0.21167264534336216 0.07848312478196227 -0.2982963535864398 0.02320972651590259 0.07986996453123624 0.03432306044796517 -0.057727649146778824 -0.009051236345977435 0.06143556563359386 -0.06737092051233323 -0.20014689883814668 -0.1581623542983577 -0.002747148200693839 0.06369421713247474 -0.03924609773862615 0.06020412853488453 -0.04487810986454792 -0.16288286082024844 0.23437755906356955 -0.022617997838851978 -0.15092354227419733 -0.04572879979914089 -0.25803618892183844 0.12923013884574175 -0.1379558712525188 -0.09945856094500928 -0.07684202643357357 0.25135609788714713 -0.015745096242512174 -0.009829620109708488 -0.11381459094469769 0.05371377894760303 0.08188611832183768 0.08524367803672575 -0.10110710299450834 0.06509301688451812 -0.06092805190468734 -0.06758528079767272 0.12498029630701497 0.05962275788693179 0.029639908808880962 -0.19367323995058267 0.04500909181276582 0.02188870648964405 0.0024260867492489095 0.04568779155752569 -0.06856341732947051 -0.19557574545999742 0.06876003567375383 0.14747583992638677 0.12070048220877377 -0.22587024687596088 0.14682872776152953 -0.13415128091033898 0.01935328126617022 0.11313447981791676 0.03097967612381392 0.09136709226471074 0.052943775755405986 -0.016444595799702307 -0.016652148252107063 -0.10043043910332446 0.15444154700018325 -0.0845053226528865 0.040458610105626985 -0.26205573273154925 0.21159543336000083 -0.12533631906756815 -0.04041593069351226 0.10164321981642817 0.22222134906728314 0.17543291441112194 -0.06393827334977686 0.12451874598298433 0.1489383209285871 0.006889429036472959 0.0913557742529039 0.31106105559277086 0.19681692306163176 0.056630366060109634 -0.0893043961270519 0.052823896045392414 -0.08616360333168281
user_38:0.12829506237592017 0.2290427184530667 -0.08791433050230678 -0.053635554920349805 0.12209726038521954 -0.2731571985142572 0.2333182878792286 0.43171226552554537 -0.13130994087883405 -0.14076946835432733 0.03973541175946593 -0.2931805316890989 -0.06861765536346606 -0.02890025159077985 0.02774673141539097 -0.07893466297537088 0.07704513293824025 -0.08541627071930893 -0.05836696784743773 -0.4373584049088614 0.08448782376945019 0.17898856050201825 0.17678390463281954 -0.13009122226919448 -0.1428035300757204 0.055910299132977216 -0.14512869928564345 -0.08968978375196457 -0.20678678367819106 0.12896670800234591 0.2345468678644725 -0.31822775304317474 0.1942561391208853 -0.219072411102908 -0.18319239999566758 0.3127589779240744 -0.11568838703845229 -0.041016540090952604 -0.042564841519509046 -0.1748079444680895 0.21045551928026335 -0.14599125725882395 -0.14420513223324502 0.16817995214036532 0.30235855281352997 0.029930454811879566 -0.019587104873997823 -0.1922863328031131 0.10473329893180303 0.15303439114774978 0.12395496027810234 -0.08321830946286875 -0.02159629389643669 0.007580707248832498 0.00014888388769967214 0.2471283142055784 0.14953737812382834 -0.05861676016190488 0.006778650118836335 0.021326345807340528 0.0959813477737563 0.012487561042819704 0.11629493374909673 0.04577584099024534 -0.06237637810409069 0.4302068789090429 0.12365637719631195 0.17920828078474318 -0.3288245328835079 0.15040201800210135 -0.19281083132539475 0.07097579059856278 0.21900880656072072 0.10240645307515349 0.11549795685069901 0.10546656165804182 -0.028182751532377943 0.08914167770750023 -0.10497866251638957 -0.06432052581970181 -0.2096195923430579 0.16090253740549088 -0.25215507192271097 0.3524938225746155 -0.17407854965754918 -0.030057320338008658 0.31784558083329884 0.14839447609015874 0.15665320732763835 0.10572274025928761 0.22825581899711064 0.06552020101142782 0.12303347473165818 0.04337529498817665 0.28787073280130115 0.11659939161368779 0.1326973619205611 0.031540836074522564 -0.03894979749540133 -0.1430587630186762
user_39:0.09054256203687853 0.1749870522154702 -0.09880537670493747 -0.04240128273765246 0.030972088229221602 -0.1534442338678572 0.20389393895036645 0.30854190952248045 -0.07439118265691731 -0.07309736708799998 -0.10981951361690234 -0.23039210736751556 0.0008169052009988163 -0.06333526203719278 -0.07335640457458795 -0.06355900070630013 0.08695766650554207 -0.20185856024424234 0.027885354600018925 -0.37720321747991775 0.02616237560028417 0.07937108274135325 0.11290913290997398 -0.024605854883945236 -0.05613072179775271 0.05560312614672714 -0.08843341287639406 -0.17025690492656495 -0.15742240945498148 0.042801572690303956 0.10050347314940558 -0.12217722700184418 0.09418498472207122 -0.09008379533576469 -0.18092818392647636 0.23910235365231833 -0.04394269329237027 -0.1557378532520185 -0.05140367928478453 -0.22793463153971566 0.10393193776900363 -0.14009555280208588 -0.08219755891607039 -0.022995878838830523 0.24656073914633858 0.02621483490284946 -0.028057704532855294 -0.1589457779087954 0.06058508658574687 0.10285729716221491 0.0832758329808712 -0.11174217930270566 0.01671270274867614 -0.07856493975139327 -0.08079598235587279 0.12445451733138826 0.06432314831763505 -0.008471101931192809 -0.2289687703260117 0.052458879599968596 0.05173008523674475 -0.045215548233439526 0.0734127480459089 -0.04307914236560464 -0.19488675600538652 0.1416280991009747 0.1167843150595824 0.11916186958551407 -0.23896586530738406 0.16571841852532493 -0.1480912725130717 0.03363772573906721 0.12726692971256043 0.02561715726947619 0.08914692377050717 0.06536843735310767 -0.03554144933780966 0.0355369597983857 -0.08132191946109137 0.08300933802707328 -0.13452489227056502 0.07803356723032064 -0.25531516836749185 0.19890528867642085 -0.12798346016142104 -0.04678024529582924 0.12772759071861703 0.18932292014360427 0.18417017774449454 -0.08402959346874721 0.15910931295818753 0.10445270468739586 0.03925296131379178 0.0661225683055818 0.2781629426611794 0.17255238526397282 0.09316811870990528 -0.06908634969214392 0.03113012354523461 -0.08190273038215107
user_40:0.09543257250334136 0.1836089799180627 -0.08711579063674435 -0.04429633275140077 0.06975020002573729 -0.19650812353938818 0.2066840894985944 0.34928619861602783 -0.09502777806483209 -0.09230897203087807 -0.05924373699599528 -0.24747147783637047 -0.029823632212355733 -0.05210611911024898 -0.03459267571452074 -0.06260994670446962 0.08509449288249016 -0.14470593072474003 -0.00853272364474833 -0.39410118758678436 0.043023051926866174 0.10990555793978274 0.1364386877976358 -0.05706963629927486 -0.07671355380443856 0.055453891633078456 -0.11248232051730156 -0.12809514859691262 -0.1802145754918456 0.07543660420924425 0.15565280104056 -0.19591679715085775 0.12773242080584168 -0.14084033761173487 -0.17320063710212708 0.26322950422763824 -0.06453939783386886 -0.11075846757739782 -0.042956840712577105 -0.19754699431359768 0.13300051260739565 -0.13897089939564466 -0.09826913708820939 0.047570156399160624 0.25745837949216366 0.02255413547391072 -0.028574753843713552 -0.17264738073572516 0.08225158974528313 0.11310106189921498 0.09892541356384754 -0.10475436411798 0.012856343295425177 -0.04404404904926196 -0.06059438060037792 0.1626402558758855 0.09904587722849101 -0.02529870835132897 -0.13477608002722263 0.049251106451265514 0.06285806317464449 -0.030104256700724363 0.09034042252460495 -0.010404510423541069 -0.14625133201479912 0.24789428734220564 0.11310648266226053 0.13549458095803857 -0.2657888103276491 0.1543998969718814 -0.17466921918094158 0.04805055260658264 0.1559521146118641 0.05522315506823361 0.09498791210353374 0.0822417102754116 -0.023793459695298225 0.061055661644786596 -0.08706104569137096 0.027725601103156805 -0.16504057263955474 0.10693242633715272 -0.24598286114633083 0.25347114726901054 -0.14964664727449417 -0.03680892800912261 0.18499818118289113 0.15988415852189064 0.16162596456706524 -0.016574320528889075 0.1781591372564435 0.0894779292284511 0.06748028433776199 0.05078712123213336 0.27438863925635815 0.14512929040938616 0.11177871143445373 -0.038313742843456566 0.007906434591859579 -0.09313246188685298
user_41:0.11953485772634546 0.20220607332885265 -0.11186867021024227 -0.048752941171793886 0.0685057944986814 -0.19115844167148074 0.22217346813219288 0.35643854923546314 -0.09726442955434322 -0.1073556838867565 -0.04928832087898627 -0.2591257852812608 -0.018408015913640458 -0.04560052423524515 -0.025422572158277035 -0.06437661854821879 0.08755070145707577 -0.15026330154069 -0.0025496585682655373 -0.4091043348113696 0.054273962683510035 0.13153019203067137 0.14263288085991613 -0.05383340234402567 -0.0835327766641664 0.047785630313834794 -0.11006611220849057 -0.1397680506731073 -0.1580417606358727 0.07813747100105199 0.1257668551406823 -0.19588131057510813 0.14633984316606075 -0.14600823249202222 -0.18613816580424705 0.28045623066524666 -0.07014757625681038 -0.1117378920413709 -0.05133402564873298 -0.2054894963900248 0.15950243006227538 -0.14661459221194187 -0.10397362040627438 0.06174175216195484 0.280081020668149 0.03748540774298211 -0.02168717043241486 -0.18047847137010345 0.07461204977395634 0.1288030535603563 0.0862759950881203 -0.10060675197746605 -0.011879429095036661 -0.05460808342710758 -0.038533266788969435 0.16509403272842368 0.0861152639069284 -0.024728391338915873 -0.13043849694076926 0.03460577143414412 0.08599218332286303 -0.028691355017751146 0.09957108336190383 0.0021487328582831347 -0.1363176431041211 0.25545347295701504 0.11477265848467748 0.15033710515126586 -0.2819765085975329 0.16009223461151123 -0.1436987000827988 0.05316447627653057 0.17051912238821387 0.05789194847845162 0.11722265711675088 0.07322192267747596 -0.03024733926091964 0.06298095119806628 -0.09265399755289157 0.021825087800001104 -0.16300609628281867 0.1048985904684135 -0.25193450910349685 0.2521661658150454 -0.1284943725913763 -0.04667544434778392 0.22311911978370821 0.1737031815573573 0.1806863434612751 -0.007870958817269033 0.19137708749622107 0.09202834535487152 0.0747414468084268 0.06227418603763605 0.28660740082462627 0.1518020142490665 0.10989362474841376 -0.026645059309278924 -0.007870870031183586 -0.10822590789757669
user_42:0.11818138152981798 0.21649294657011828 -0.06587388378102332 -0.0642444915138185 0.11808118309515218 -0.2724654749035835 0.20138587940406674 0.4225057040651639 -0.12350998197992642 -0.1350585992137591 0.030505266855470836 -0.295178335160017 -0.07257812167517841 -0.020669407250049215 0.030360008764546365 -0.07159053805905084 0.046639382761592664 -0.08541967890535791 -0.035645801263550915 -0.4105752110481262 0.08797276268402736 0.1829658579081297 0.15250736909608045 -0.12911435573672256 -0.12098307862712925 0.06413057399913669 -0.13354308220247427 -0.09637381322681904 -0.19815717513362566 0.11157549014509034 0.21822766276697317 -0.2802288140471016 0.18322419251004854 -0.20957378298044205 -0.17754085486133894 0.3094564912219842 -0.09829017799347639 -0.04159538300397495 -0.0397847689067324 -0.18203991403182349 0.20851379415641227 -0.136334715411067 -0.13956715756406388 0.1494704590489467 0.30417705451448757 0.016727803585429985 -0.014418764835378775 -0.17068081628531218 0.10360319539904594 0.13465736526995897 0.11327958727876346 -0.07651716346542041 -0.0013427105732262135 0.013133387042519947 0.004906447138637304 0.2352562261124452 0.14493165661891302 -0.03378080510689566 0.015808225376531482 0.016995027428492904 0.09142307719836633 0.018145615545411903 0.1064133895561099 0.04555275888803104 -0.06090170990986129 0.40158210042864084 0.12185161809126537 0.1820612574617068 -0.31442468985915184 0.1437613759189844 -0.18745389704902968 0.07078805364047487 0.21540353012581667 0.10920710333933432 0.1257254108786583 0.09980667009949684 -0.020523349521681666 0.06979251280426979 -0.10897120864440997 -0.04184389774066707 -0.18750173536439738 0.1374342661971847 -0.24574134747187296 0.3424578780929248 -0.1638113372027874 -0.031828794667186834 0.3118148846551776 0.16525710560381413 0.14771592554946741 0.11023693933384493 0.21860510980089506 0.08362073660828173 0.11389669535371165 0.05349033679037044 0.30508650466799736 0.11730790821214516 0.1130990070135643 0.020576170024772484 -0.030661827127914876 -0.1399269669006268
user_43:0.10901577770709991 0.20526996813714504 0.012743234867230058 -0.08330877078697085 0.15115343779325485 -0.32732478715479374 0.10626516467891634 0.45973676070570946 -0.09870906779542565 -0.1374631393700838 0.09876710642129183 -0.33352284133434296 -0.10835045529529452 0.02281161963037448 0.10725976852700114 -0.12845603004097939 -0.0748028822708875 -0.05544082302367315 0.009261148938094266 -0.30943339318037033 0.11617452837526798 0.24459446221590042 0.046712517272681 -0.21758062485605478 -0.07781726203393191 0.057794109685346484 -0.12463743425905704 -0.12767369206994772 -0.20018695294857025 0.06805198127403855 0.18626192631199956 -0.22630238346755505 0.17972255032509565 -0.175880360417068 -0.15031560882925987 0.34815920889377594 -0.10158713767305017 0.02102230256423354 -0.04050268977880478 -0.210527453571558 0.32826684415340424 -0.1521285232156515 -0.1913844831287861 0.1592284538783133 0.34385401755571365 -0.03760753355891211 0.017954168069991283 -0.11279344814829528 0.1058710990473628 0.14109706413000822 0.1245630094781518 -0.038709647487849 0.04529596632346511 0.062059672083705664 0.07182847079820931 0.28266050294041634 0.15853470843285322 -0.004963078048604075 0.17099240195238963 -0.029333834143471904 0.07184696127660573 0.12742834957316518 0.09730776725336909 0.04218561004381627 -0.003607564198318869 0.4036042131483555 0.17296177614480257 0.21990935504436493 -0.3509645611047745 0.10344650782644749 -0.15857525542378426 0.06130804819986224 0.23691999353468418 0.143704392015934 0.15210938453674316 0.09584661154076457 0.015950328612234443 0.022556479088962078 -0.15468963515013456 0.009578344281180762 -0.14033745671622455 0.11635774839669466 -0.25130363926291466 0.43643711134791374 -0.1762257907539606 -0.010083220317028463 0.37970105931162834 0.1927734985947609 0.12846243754029274 0.22774092014878988 0.19251521676778793 0.1427737046033144 0.09741540753748268 0.0950070028193295 0.3610440567135811 0.14907393977046013 0.08458021411206573 0.03607936028856784 -0.03835264779627323 -0.18723054975271225
user_44:0.08850667113438249 0.16789087355136872 -0.1226953317236621 -0.03330071395098457 0.006659477349603549 -0.12487352858297526 0.2263165356591344 0.2875039428472519 -0.06600266192108392 -0.06220071786083281 -0.14877927194538643 -0.21587784998118878 0.023425479662546423 -0.08104511376295705 -0.11071199802099727 -0.05646442749421112 0.11697101034951629 -0.23385666031390429 0.03369984695018502 -0.38510762378573415 0.011019369064888452 0.05027054554375354 0.13020785966073162 0.010392441413569032 -0.05718897374463268 0.04871359509706963 -0.0772386378608644 -0.18318897290155292 -0.1545978358015418 0.03886508437935845 0.0846369952429086 -0.10309201808122452 0.08167377267964185 -0.06512345136143267 -0.1875317022204399 0.2172768719494343 -0.03993981907842681 -0.19557434956077485 -0.053888226533308624 -0.23143947683274746 0.06763456355402013 -0.14165366478264332 -0.06612025940557942 -0.0521591137163341 0.23381005115807058 0.04016514563991223 -0.03292488182196394 -0.16911500860005618 0.05299849780276418 0.09965827018022537 0.07882783217355609 -0.13008321020752192 0.010326133396301885 -0.10098126458469778 -0.11077863949467429 0.1049586490727961 0.04823151194577804 -0.014316067544859834 -0.3036216249223799 0.0644467972451821 0.048884863185230644 -0.069070681091398 0.06619520806707442 -0.0632920200121589 -0.2379780611023307 0.09404202015139163 0.11247259359806776 0.10135739352554082 -0.2254306711256504 0.1782547403126955 -0.14380057733505963 0.025195406423154054 0.11259470768272876 -0.0004547654927591793 0.07646787008270621 0.06379019282758236 -0.04378342450945638 0.035919504379853605 -0.07559879710897803 0.10013546526897699 -0.1348383693024516 0.07400722289457917 -0.2559090990573168 0.16082565137185156 -0.11964165940880775 -0.05067229745909572 0.07504696225514636 0.1903626412153244 0.197962461784482 -0.1427520894445479 0.1611691616475582 0.09559021730092354 0.02857148570183199 0.06418474996462464 0.2638131983578205 0.178971491381526 0.10204413244500757 -0.08717473998985951 0.04228246079874225 -0.06745120529085398
user_45:0.07605328458575074 0.16532310066347727 0.01585310185328126 -0.06723254610646943 0.10100674234830667 -0.280600296669319 0.11121866569022236 0.40089462892931016 -0.08387547044358293 -0.1048343874147681 0.01115150568905653 -0.29909582655937944 -0.07968892575600414 -0.004499631782146323 0.03112957901779379 -0.10274612415032308 -0.049326130005790565 -0.11841419157877442 0.04136518651398174 -0.30586437087078566 0.08306521513679668 0.16740519904577342 0.05386473594012014 -0.16412913838981605 -0.06244088799910254 0.0698553320692211 -0.1064576439437319 -0.13818576034219537 -0.20755282117695104 0.043670631340632336 0.17916148169668483 -0.16492076828068153 0.12276548750843609 -0.14331460831167755 -0.15658318019304118 0.2856910150559222 -0.06749996084521417 -0.04723106187169028 -0.04340842766229246 -0.21297769969115493 0.22683392990319456 -0.13536276375172568 -0.15212593783364922 0.0690414190490837 0.30016436586614514 -0.03881609474869872 -0.00011781177442467421 -0.10351016888486557 0.0910168930155332 0.10862983179954501 0.11806184932833812 -0.06384167158842606 0.07315363407852586 0.02886482774371617 0.00831527232772625 0.2387363290200468 0.14233866871380416 0.014511792562695861 0.03039039352710252 0.008946350414962431 0.03712909722502236 0.07249310322212757 0.07185552018068608 0.0026173960783931077 -0.07673043450798656 0.2856806214959895 0.1513742154128239 0.18476811466646975 -0.2871382270680099 0.12468637672604108 -0.1699541664270104 0.04823198367185036 0.19586235871080493 0.10221363612656771 0.11812278512315671 0.08351255123518773 0.00609456879834904 -0.0007409011385953206 -0.12807144817025934 0.055411849567880395 -0.12525216040399964 0.08918287103125429 -0.25461802741543194 0.34670896852602723 -0.17336824548537613 -0.02691290625294701 0.25565245173505097 0.2080175188965485 0.13518083498614733 0.11430598031653122 0.178041866323987 0.14009917467130256 0.06777513435980702 0.08729667543265664 0.33942040385770017 0.15435687440340637 0.06786237795241788 -0.007033925288791967 0.00016497732063785927 -0.13735333384304751
user_46:0.12353585128273283 0.2169473490544728 -0.12025257173393454 -0.04744926786848477 0.0853750295271831 -0.22239807673863002 0.2588643878698349 0.39626861044338774 -0.11824671658022064 -0.13467206273760116 -0.018694885607276644 -0.27795044226305826 -0.03497057838831097 -0.048815335072244385 -0.014303299997534071 -0.05739783575492246 0.11460278209831033 -0.12689307278820447 -0.03675620885665661 -0.45054895111492704 0.07307094362165246 0.1474828819877335 0.1993968231337411 -0.07021955972803491 -0.12932384333440236 0.05201011896133423 -0.134064005953925 -0.10450072799410139 -0.17997578637940542 0.1185605621763638 0.19848322389381273 -0.2829939275979996 0.17170818043606623 -0.19252459758094378 -0.1936576302562441 0.28208189989839283 -0.09295203483530454 -0.08853894072983946 -0.04755842685699463 -0.16987551216568267 0.16039188019931316 -0.14038822054862976 -0.10801330528088979 0.12498472018965653 0.28028019624097006 0.043713497871067375 -0.029862570792569647 -0.19847404956817627 0.08899226412177086 0.1439990507704871 0.10426330459969384 -0.09846821799874306 -0.021045242635799304 -0.03005394193210772 -0.0364132896065712 0.2061957088964326 0.12500763551465102 -0.04842799141104998 -0.09273784501211983 0.03200785325108362 0.0904783122241497 -0.035170898373637884 0.12266720778175763 0.03147135142769132 -0.11329895630478859 0.35862121252076967 0.09854210540652275 0.16332056586231505 -0.2978414701563971 0.16453568743807928 -0.17047534244401114 0.06981853023171425 0.2014279759355954 0.07526595970349652 0.10655219373958451 0.09290435697351183 -0.027263945567288568 0.09093634118991238 -0.09067431571228164 -0.045814970774309974 -0.20510842757565634 0.1389346266431468 -0.24271243384906224 0.2857496150370155 -0.16164300590753555 -0.03971346773739372 0.2641489305533469 0.15073731860944203 0.16668289580515452 0.025628351207290376 0.23028036100523813 0.06072161552895393 0.11019617744854518 0.04274564083399517 0.27294768605913433 0.12402059670005526 0.1406379086630685 0.005718014078281287 -0.02346452498542411 -0.11366865251745496
user_47:0.10340540238063443 0.19026347317478873 -0.08898736312138764 -0.05344024679454213 0.07053163414556449 -0.19978638670661233 0.20303339511156082 0.34734706445173785 -0.09898420203138482 -0.09775055521591143 -0.052729462082921105 -0.2488850341601805 -0.03194529800252481 -0.04581140148961409 -0.026875485486181624 -0.06350900300524452 0.07662694359367545 -0.14784795028919523 -0.0028043976265259766 -0.39137953519821167 0.050173482751812444 0.11772304028272629 0.13336468614976515 -0.0641777050067586 -0.07742898159829731 0.06101128613491627 -0.11209099672057411 -0.13408355008472095 -0.16829093410210175 0.07283576951489192 0.14929990555075082 -0.1941848828203299 0.13070078134875407 -0.14818342605775053 -0.17658438059416684 0.266857621344653 -0.07046747019260445 -0.1037339438599619 -0.04593416642058979 -0.20439474961974405 0.1411499809473753 -0.12949078631671992 -0.10259015417911789 0.044928720644251866 0.2633543671532111 0.02185203928754411 -0.027613915016197345 -0.16499777815558694 0.07908912527967583 0.11775511215356263 0.0891851063140414 -0.09909135645086115 0.004769120111384175 -0.04344638807445087 -0.046721009368246254 0.1630938777869398 0.09526754962280393 -0.015864429986157284 -0.1277071470818059 0.043044233197261667 0.06529334480662576 -0.0263973286756399 0.09013284488835117 -0.002651681927752427 -0.13820902719585734 0.2508836383931339 0.11730302430012009 0.14226578548550606 -0.2646508934822949 0.15520494532856074 -0.16419549760493365 0.053836274638094685 0.15859410911798477 0.06109587999526411 0.09704648296941411 0.07340993359684944 -0.0290462618524378 0.057091536042703825 -0.08506812222979286 0.02274420861662789 -0.1581708754158833 0.10436925943940878 -0.2478006895292889 0.254936678504402 -0.14440103857354683 -0.039375383660874584 0.20290334327993068 0.1688417565416206 0.16504058851437134 -0.007613869077018039 0.1775747991421006 0.09282658198340372 0.067867513386194 0.05211447253399952 0.2797393351793289 0.14736808734861287 0.10271239001303911 -0.03531472503461621 0.0025406250920654697 -0.09864077937196601
